{"learner":{"attributes":{"scikit_learn":"{\"_estimator_type\": \"classifier\"}"},"feature_names":["atr_pct","BBB_20_2.0_2.0","volatility_regime","hour","is_us_session","funding_rate","funding_z_score","macro_trend","macro_trend_4h","dist_ema21","dist_vwap","ret_1h","ret_4h","momentum_3","RSI_norm","StochRSI_norm","MACD_12_26_9","MACDh_12_26_9","MACDs_12_26_9","volume_ratio_24h","price_position_4h","ADX_14"],"feature_types":["float","float","float","int","float","float","float","float","float","float","float","float","float","float","float","float","float","float","float","float","float","float"],"gradient_booster":{"model":{"cats":{"enc":[],"feature_segments":[],"sorted_idx":[]},"gbtree_model_param":{"num_parallel_tree":"1","num_trees":"217"},"iteration_indptr":[0,1,2,3,4,5,6,7,8,9,10,11,12,13,14,15,16,17,18,19,20,21,22,23,24,25,26,27,28,29,30,31,32,33,34,35,36,37,38,39,40,41,42,43,44,45,46,47,48,49,50,51,52,53,54,55,56,57,58,59,60,61,62,63,64,65,66,67,68,69,70,71,72,73,74,75,76,77,78,79,80,81,82,83,84,85,86,87,88,89,90,91,92,93,94,95,96,97,98,99,100,101,102,103,104,105,106,107,108,109,110,111,112,113,114,115,116,117,118,119,120,121,122,123,124,125,126,127,128,129,130,131,132,133,134,135,136,137,138,139,140,141,142,143,144,145,146,147,148,149,150,151,152,153,154,155,156,157,158,159,160,161,162,163,164,165,166,167,168,169,170,171,172,173,174,175,176,177,178,179,180,181,182,183,184,185,186,187,188,189,190,191,192,193,194,195,196,197,198,199,200,201,202,203,204,205,206,207,208,209,210,211,212,213,214,215,216,217],"tree_info":[0,0,0,0,0,0,0,0,0,0,0,0,0,0,0,0,0,0,0,0,0,0,0,0,0,0,0,0,0,0,0,0,0,0,0,0,0,0,0,0,0,0,0,0,0,0,0,0,0,0,0,0,0,0,0,0,0,0,0,0,0,0,0,0,0,0,0,0,0,0,0,0,0,0,0,0,0,0,0,0,0,0,0,0,0,0,0,0,0,0,0,0,0,0,0,0,0,0,0,0,0,0,0,0,0,0,0,0,0,0,0,0,0,0,0,0,0,0,0,0,0,0,0,0,0,0,0,0,0,0,0,0,0,0,0,0,0,0,0,0,0,0,0,0,0,0,0,0,0,0,0,0,0,0,0,0,0,0,0,0,0,0,0,0,0,0,0,0,0,0,0,0,0,0,0,0,0,0,0,0,0,0,0,0,0,0,0,0,0,0,0,0,0,0,0,0,0,0,0,0,0,0,0,0,0,0,0,0,0,0,0,0,0,0,0,0,0],"trees":[{"base_weights":[1.5316405E-2,-1.4166706E0,3.338459E-2,-2.2233086E0,-9.9409837E-1,-2.085272E-2,1.5643504E-1,-2.3940659E0,-1.4161718E0,-4.0744138E-1,-1.3771131E0,1.4903378E-1,-8.6118646E-2,3.215136E-1,1.2142701E-1,-7.9788727E-1,-5.270739E-2,-4.924689E-2,-6.683015E-1,1.2005375E-1,-8.9518714E-1,-1.6157593E0,5.330245E-1,2.0907656E-3,1.8404022E-1,-1.804645E-1,1.1786696E-2,3.7587333E-1,-1.2822595E-1,2.1777187E-1,5.55079E-2,2.0521622E-2,-3.852991E-2,1.2328519E-1,-4.3864224E-2,-4.1216087E-1,8.0371994E-1,-3.2198903E-1,-2.0150545E0,-9.797248E-2,-1.8555598E0,-3.4200978E-2,8.9591753E-1,5.232702E-2,-5.408591E-1,1.8820874E-1,-1.332139E0,-4.281278E-1,-5.014532E-2,-9.061598E-2,7.802235E-2,4.350228E-1,6.7969E-2,-5.0775653E-1,2.444328E-1,2.3688823E-2,2.989798E-1,1.1031685E-2,2.0945068E-1,-3.4200978E-2,1.4714565E-2,-2.4008865E-2,2.3808595E-2,3.5995274E-4,2.6065959E-2,-2.0618167E-2,1.3692187E-2,-5.0600182E-2,-1.0263283E-3,-1.6212065E-2,1.9153623E-2,-5.1194347E-2,-2.8439507E-2,2.4953581E-2,-4.6128035E-3,3.2136836E-3,-4.7150827E-3,-1.8431766E-2,1.2426287E-2,7.1283197E-3,3.2994726E-3,-4.851665E-2,2.5990225E-2,1.0662158E-3,-1.0692831E-2,-2.521487E-3,3.9130137E-3,-3.7365502E-3,1.7736203E-3,7.427637E-4,7.140868E-3,4.991718E-3,1.113305E-2,-3.852991E-2,2.1107844E-3,-3.189339E-2,-4.191315E-3,7.6871514E-3,-4.1347977E-2,2.116585E-3,-1.292065E-2,7.0189536E-3,-1.0044747E-2,1.597636E-3,-3.7573196E-3,6.18327E-3,-5.3996965E-3],"categories":[],"categories_nodes":[],"categories_segments":[],"categories_sizes":[],"default_left":[0,0,0,0,0,0,0,0,0,0,0,0,0,0,0,0,0,0,0,0,0,0,0,0,0,0,0,0,0,0,0,0,0,0,0,0,0,0,0,0,0,0,0,0,0,0,0,0,0,0,0,0,0,0,0,0,0,0,0,0,0,0,0,0,0,0,0,0,0,0,0,0,0,0,0,0,0,0,0,0,0,0,0,0,0,0,0,0,0,0,0,0,0,0,0,0,0,0,0,0,0,0,0,0,0,0,0],"id":0,"left_children":[1,3,5,7,9,11,13,15,17,19,21,23,25,27,29,31,-1,-1,33,35,37,39,41,43,45,47,49,51,53,55,57,-1,-1,59,-1,61,63,65,67,69,71,-1,73,75,77,79,81,83,85,87,89,91,93,95,97,99,101,103,105,-1,-1,-1,-1,-1,-1,-1,-1,-1,-1,-1,-1,-1,-1,-1,-1,-1,-1,-1,-1,-1,-1,-1,-1,-1,-1,-1,-1,-1,-1,-1,-1,-1,-1,-1,-1,-1,-1,-1,-1,-1,-1,-1,-1,-1,-1,-1,-1],"loss_changes":[7.0644104E2,1.13756165E2,1.7995038E2,1.2617737E1,5.0010788E1,2.0752034E2,4.763121E1,6.7008057E0,1.3332726E1,2.3345287E1,6.274063E1,2.6720634E1,1.2489781E2,3.531732E1,4.3219803E1,1.0007453E1,0E0,0E0,1.5089306E1,1.6440508E1,2.9550472E1,4.3828217E1,1.3623844E1,2.7316162E1,2.676532E1,2.2222215E2,4.5019928E1,2.3415619E1,2.2232254E1,4.357277E1,2.767998E1,0E0,0E0,1.0328359E1,0E0,2.8594954E1,6.321107E0,2.0344E1,1.0366165E1,1.2059637E1,2.6074554E1,0E0,4.410804E0,2.4221006E1,3.0522629E1,2.0789856E1,3.0038137E1,7.851816E1,7.03539E1,3.7552376E1,4.45143E1,1.8012787E1,1.1898342E1,2.3445147E1,2.0190125E1,3.8198406E1,4.1198654E1,3.690283E1,3.2689503E1,0E0,0E0,0E0,0E0,0E0,0E0,0E0,0E0,0E0,0E0,0E0,0E0,0E0,0E0,0E0,0E0,0E0,0E0,0E0,0E0,0E0,0E0,0E0,0E0,0E0,0E0,0E0,0E0,0E0,0E0,0E0,0E0,0E0,0E0,0E0,0E0,0E0,0E0,0E0,0E0,0E0,0E0,0E0,0E0,0E0,0E0,0E0,0E0],"parents":[2147483647,0,0,1,1,2,2,3,3,4,4,5,5,6,6,7,7,8,8,9,9,10,10,11,11,12,12,13,13,14,14,15,15,18,18,19,19,20,20,21,21,22,22,23,23,24,24,25,25,26,26,27,27,28,28,29,29,30,30,33,33,35,35,36,36,37,37,38,38,39,39,40,40,42,42,43,43,44,44,45,45,46,46,47,47,48,48,49,49,50,50,51,51,52,52,53,53,54,54,55,55,56,56,57,57,58,58],"right_children":[2,4,6,8,10,12,14,16,18,20,22,24,26,28,30,32,-1,-1,34,36,38,40,42,44,46,48,50,52,54,56,58,-1,-1,60,-1,62,64,66,68,70,72,-1,74,76,78,80,82,84,86,88,90,92,94,96,98,100,102,104,106,-1,-1,-1,-1,-1,-1,-1,-1,-1,-1,-1,-1,-1,-1,-1,-1,-1,-1,-1,-1,-1,-1,-1,-1,-1,-1,-1,-1,-1,-1,-1,-1,-1,-1,-1,-1,-1,-1,-1,-1,-1,-1,-1,-1,-1,-1,-1,-1],"split_conditions":[4.8961583E-1,4.3280065E-1,1.990308E-3,8.4090716E-1,-8.95278E0,-2.3848137E-3,1.3807504E-1,3.099526E-5,1E0,1.3866974E1,1.5226296E-3,8.2012355E-1,1E0,9.4624907E-1,2.693406E1,-8.714679E-1,-5.270739E-2,-4.924689E-2,1.338101E1,-5.4432464E-1,-5.3101656E-4,-9.6631557E-4,4.5666888E-1,8.0449307E-1,6.474941E-1,8.560589E-1,-3.9364308E-1,2.974015E1,1.0880519E0,2.4089678E1,1.3860205E0,2.0521622E-2,-3.852991E-2,-4.6535373E0,-4.3864224E-2,1.3483487E1,-2.3884008E-4,2.2612371E1,1.4273712E-1,9.15832E-2,1E0,-3.4200978E-2,3.0736908E1,-1.1538544E1,6.3216895E-2,5.034765E-2,-2.7040992E-4,-3.6476967E1,1.6775634E-3,2.661912E1,1.1434066E0,2.3613716E-3,-6.3279998E-3,1.5809392E-3,5.2119617E1,1.9526912E2,6.1192993E2,3.0196608E1,4.669299E1,-3.4200978E-2,1.4714565E-2,-2.4008865E-2,2.3808595E-2,3.5995274E-4,2.6065959E-2,-2.0618167E-2,1.3692187E-2,-5.0600182E-2,-1.0263283E-3,-1.6212065E-2,1.9153623E-2,-5.1194347E-2,-2.8439507E-2,2.4953581E-2,-4.6128035E-3,3.2136836E-3,-4.7150827E-3,-1.8431766E-2,1.2426287E-2,7.1283197E-3,3.2994726E-3,-4.851665E-2,2.5990225E-2,1.0662158E-3,-1.0692831E-2,-2.521487E-3,3.9130137E-3,-3.7365502E-3,1.7736203E-3,7.427637E-4,7.140868E-3,4.991718E-3,1.113305E-2,-3.852991E-2,2.1107844E-3,-3.189339E-2,-4.191315E-3,7.6871514E-3,-4.1347977E-2,2.116585E-3,-1.292065E-2,7.0189536E-3,-1.0044747E-2,1.597636E-3,-3.7573196E-3,6.18327E-3,-5.3996965E-3],"split_indices":[2,2,9,20,17,13,14,20,7,21,11,2,7,20,17,15,0,0,21,15,13,11,2,2,20,2,15,21,2,21,2,0,0,16,0,21,9,21,14,14,7,0,16,17,15,20,9,17,11,21,2,9,11,11,16,16,16,21,21,0,0,0,0,0,0,0,0,0,0,0,0,0,0,0,0,0,0,0,0,0,0,0,0,0,0,0,0,0,0,0,0,0,0,0,0,0,0,0,0,0,0,0,0,0,0,0,0],"split_type":[0,0,0,0,0,0,0,0,0,0,0,0,0,0,0,0,0,0,0,0,0,0,0,0,0,0,0,0,0,0,0,0,0,0,0,0,0,0,0,0,0,0,0,0,0,0,0,0,0,0,0,0,0,0,0,0,0,0,0,0,0,0,0,0,0,0,0,0,0,0,0,0,0,0,0,0,0,0,0,0,0,0,0,0,0,0,0,0,0,0,0,0,0,0,0,0,0,0,0,0,0,0,0,0,0,0,0],"sum_hessian":[2.7300922E4,3.3921436E2,2.6961707E4,1.1514857E2,2.240658E2,1.871394E4,8.247768E3,9.341884E1,2.1729733E1,8.931986E1,1.3474593E2,5.1936475E3,1.3520292E4,1.4416344E3,6.8061333E3,3.762266E0,8.965657E1,9.066621E0,1.2663111E1,4.3273552E1,4.6046314E1,1.199179E2,1.482803E1,9.994433E2,4.194204E3,6.884879E3,6.635413E3,1.2863218E3,1.5531265E2,2.7640293E3,4.042104E3,1.3763131E0,2.385953E0,8.606991E0,4.05612E0,2.4555178E1,1.8718374E1,3.1308664E1,1.473765E1,1.6553455E1,1.0336444E2,1.6701671E0,1.3157863E1,9.156287E2,8.381461E1,4.1835776E3,1.0626271E1,2.3729514E3,4.5119277E3,2.6060303E3,4.029383E3,1.0786891E3,2.0763269E2,7.676727E1,7.854538E1,8.157404E2,1.948289E3,3.1368857E3,9.052183E2,1.6701671E0,6.9368243E0,1.6957827E1,7.5973516E0,6.7534876E0,1.1964886E1,1.881133E1,1.2497335E1,1.2406955E1,2.3306942E0,1.0093822E1,6.4596334E0,5.028835E1,5.3076096E1,1.05885725E1,2.5692894E0,6.747585E2,2.4087025E2,6.551817E1,1.8296442E1,8.1455725E2,3.3690205E3,7.873645E0,2.7526262E0,3.00328E2,2.0726233E3,3.5002131E3,1.0117145E3,1.7602495E3,8.457807E2,3.4416892E3,5.876939E2,3.1375958E2,7.6492944E2,2.385953E0,2.0524673E2,1.772887E1,5.9038403E1,7.544364E1,3.1017387E0,7.293013E2,8.643916E1,1.881377E3,6.691205E1,2.3403909E3,7.9649475E2,7.742398E2,1.3097852E2],"tree_param":{"num_deleted":"0","num_feature":"22","num_nodes":"107","size_leaf_vector":"1"}},{"base_weights":[7.0796665E-3,-4.3003646E-1,5.8918085E-2,-9.908755E-1,-3.7954023E-1,-4.530801E-2,1.2505654E-1,-1.9034786E0,-3.5674515E-1,-3.02245E-1,-6.398613E-1,-3.5349363E-1,-1.5589916E-2,1.7811054E-1,1.5499766E-2,2.9976003E-2,-2.1162846E0,-1.4715075E-1,-5.0519567E-2,-3.4599566E-1,4.1798678E-1,-5.3717977E-1,-1.862164E0,-6.6764796E-1,-1.8128219E-1,-4.458598E-2,2.5598457E-1,6.004307E-2,2.1235216E-1,4.572752E-2,-3.4983024E-1,6.046399E-1,-2.2297828E0,1.7666357E-2,-1.3050351E0,-3.2238665E-1,-5.213851E-2,-1.421136E0,5.362444E-1,-6.7040294E-1,-3.2709237E-2,1.3688983E-2,-1.9661199E0,-2.2516434E0,-4.93373E-1,-8.811305E-2,-9.364326E-1,-6.862866E-2,2.2428422E-1,-1.8615435E0,2.8701174E-1,-1.8867485E-1,9.5928594E-2,2.1961638E-1,-1.281502E-1,2.753206E-1,-1.2594137E-3,-5.4940957E-1,-1.6689071E-2,2.0489786E-2,3.0323889E-3,-5.055568E-2,3.7596102E-3,3.274665E-3,-4.6228327E-2,-4.0066622E-2,9.591854E-3,-1.2013252E-2,-3.976392E-3,1.3639688E-2,-4.5285992E-2,1.4777243E-2,-1.7714923E-2,-4.9349263E-2,-1.3510451E-2,-1.2030117E-2,6.902008E-3,-2.8114665E-2,-5.2330617E-2,-5.2593414E-2,1.3688983E-2,6.060122E-3,-1.4010057E-2,1.0401398E-2,-4.651741E-3,-4.4803277E-2,-8.988895E-3,-1.1964909E-2,-1.2203217E-3,-1.5308577E-4,7.2363275E-3,-4.9531728E-2,1.3630811E-2,-4.0946477E-3,8.50451E-3,-6.260817E-3,1.7780798E-2,8.475687E-3,1.4588176E-3,5.6870473E-3,3.3620181E-3,-3.44178E-2,1.9377216E-3,4.5675235E-3,1.2872409E-2,-3.3565604E-3,1.7189789E-3,-2.7152456E-2,-8.3380295E-3,1.5536673E-2,-7.7723437E-3],"categories":[],"categories_nodes":[],"categories_segments":[],"categories_sizes":[],"default_left":[0,0,0,0,0,0,0,0,0,0,0,0,0,0,0,0,0,0,0,0,0,0,0,0,0,0,0,0,0,0,0,0,0,0,0,0,0,0,0,0,0,0,0,0,0,0,0,0,0,0,0,0,0,0,0,0,0,0,0,0,0,0,0,0,0,0,0,0,0,0,0,0,0,0,0,0,0,0,0,0,0,0,0,0,0,0,0,0,0,0,0,0,0,0,0,0,0,0,0,0,0,0,0,0,0,0,0,0,0,0,0],"id":1,"left_children":[1,3,5,7,9,11,13,15,17,19,21,23,25,27,29,-1,31,33,-1,35,37,39,41,43,45,47,49,51,53,55,57,59,61,63,65,67,-1,69,71,73,75,-1,77,79,81,83,85,87,89,91,93,95,97,99,101,103,105,107,109,-1,-1,-1,-1,-1,-1,-1,-1,-1,-1,-1,-1,-1,-1,-1,-1,-1,-1,-1,-1,-1,-1,-1,-1,-1,-1,-1,-1,-1,-1,-1,-1,-1,-1,-1,-1,-1,-1,-1,-1,-1,-1,-1,-1,-1,-1,-1,-1,-1,-1,-1,-1],"loss_changes":[6.174953E2,8.144513E1,1.6794089E2,1.3706645E2,5.3171387E1,8.662146E1,8.662833E1,7.127069E1,5.8832184E1,6.46414E1,7.5094086E1,4.4880653E1,6.795054E1,4.0583527E1,5.372834E1,0E0,2.9713104E1,2.4689816E1,0E0,9.3958786E1,2.6353643E1,3.7661896E1,1.33519745E1,8.009015E1,3.7815586E1,5.041271E1,5.5227448E1,2.0179703E1,1.9280975E1,4.847108E1,2.4711365E1,5.8663917E-1,2.626471E1,3.364157E1,1.6597279E1,6.1933563E1,0E0,1.1734727E1,2.343348E1,2.8833328E1,2.2205553E1,0E0,1.0669266E1,1.7784119E1,3.2852592E1,3.5354015E1,3.425324E1,4.14139E1,1.6636326E1,1.487574E1,4.2640816E1,2.9935997E1,1.6511673E1,2.1599518E1,5.261117E1,1.5394318E1,4.6932236E1,2.6314331E1,3.603426E1,0E0,0E0,0E0,0E0,0E0,0E0,0E0,0E0,0E0,0E0,0E0,0E0,0E0,0E0,0E0,0E0,0E0,0E0,0E0,0E0,0E0,0E0,0E0,0E0,0E0,0E0,0E0,0E0,0E0,0E0,0E0,0E0,0E0,0E0,0E0,0E0,0E0,0E0,0E0,0E0,0E0,0E0,0E0,0E0,0E0,0E0,0E0,0E0,0E0,0E0,0E0,0E0],"parents":[2147483647,0,0,1,1,2,2,3,3,4,4,5,5,6,6,7,7,8,8,9,9,10,10,11,11,12,12,13,13,14,14,16,16,17,17,19,19,20,20,21,21,22,22,23,23,24,24,25,25,26,26,27,27,28,28,29,29,30,30,31,31,32,32,33,33,34,34,35,35,37,37,38,38,39,39,40,40,42,42,43,43,44,44,45,45,46,46,47,47,48,48,49,49,50,50,51,51,52,52,53,53,54,54,55,55,56,56,57,57,58,58],"right_children":[2,4,6,8,10,12,14,16,18,20,22,24,26,28,30,-1,32,34,-1,36,38,40,42,44,46,48,50,52,54,56,58,60,62,64,66,68,-1,70,72,74,76,-1,78,80,82,84,86,88,90,92,94,96,98,100,102,104,106,108,110,-1,-1,-1,-1,-1,-1,-1,-1,-1,-1,-1,-1,-1,-1,-1,-1,-1,-1,-1,-1,-1,-1,-1,-1,-1,-1,-1,-1,-1,-1,-1,-1,-1,-1,-1,-1,-1,-1,-1,-1,-1,-1,-1,-1,-1,-1,-1,-1,-1,-1,-1,-1],"split_conditions":[5.097571E-1,1.0523695E1,1.0495688E0,3.5932386E-1,1.0947047E1,-1.2527187E2,3.2757854E1,-5.0790295E1,5.277452E1,3.3948616E1,2.8958128E1,7.782933E-1,3.353481E1,-4.9871506E1,1.25153114E2,2.9976003E-2,-1.9107948E-1,8.8143634E-4,-5.0519567E-2,1.4886728E2,-5.7987057E1,9.825464E-4,-3.5393694E-1,-2.29421E-1,1.0097244E0,2.2365763E-3,-1.1542452E2,4.6335596E-1,3.3617044E2,-2.677227E-3,4.416075E1,-1.6720938E-3,1.4664248E-3,1.677516E1,1.839491E1,-1.0201474E1,-5.213851E-2,-7.69859E1,-9.30382E-1,-7.2202496E-2,1.2051814E0,1.3688983E-2,3.353481E1,4.2918518E1,-2.8030505E2,-2.7054343E-3,2.8958128E1,3.014715E-1,-8.51122E0,1.5485527E-3,5.290266E-1,3.8461812E0,1.6450476E1,3.801125E1,2.4608744E1,-3.0048275E-3,-1.8433863E-1,2.4080284E-2,-1.886896E-3,2.0489786E-2,3.0323889E-3,-5.055568E-2,3.7596102E-3,3.274665E-3,-4.6228327E-2,-4.0066622E-2,9.591854E-3,-1.2013252E-2,-3.976392E-3,1.3639688E-2,-4.5285992E-2,1.4777243E-2,-1.7714923E-2,-4.9349263E-2,-1.3510451E-2,-1.2030117E-2,6.902008E-3,-2.8114665E-2,-5.2330617E-2,-5.2593414E-2,1.3688983E-2,6.060122E-3,-1.4010057E-2,1.0401398E-2,-4.651741E-3,-4.4803277E-2,-8.988895E-3,-1.1964909E-2,-1.2203217E-3,-1.5308577E-4,7.2363275E-3,-4.9531728E-2,1.3630811E-2,-4.0946477E-3,8.50451E-3,-6.260817E-3,1.7780798E-2,8.475687E-3,1.4588176E-3,5.6870473E-3,3.3620181E-3,-3.44178E-2,1.9377216E-3,4.5675235E-3,1.2872409E-2,-3.3565604E-3,1.7189789E-3,-2.7152456E-2,-8.3380295E-3,1.5536673E-2,-7.7723437E-3],"split_indices":[1,21,1,1,17,18,21,18,18,21,21,1,21,17,17,0,14,11,0,18,17,11,14,15,1,11,17,19,18,11,21,11,11,17,17,17,0,17,17,15,19,0,21,17,18,13,21,19,18,13,19,1,21,17,21,11,14,14,11,0,0,0,0,0,0,0,0,0,0,0,0,0,0,0,0,0,0,0,0,0,0,0,0,0,0,0,0,0,0,0,0,0,0,0,0,0,0,0,0,0,0,0,0,0,0,0,0,0,0,0,0],"split_type":[0,0,0,0,0,0,0,0,0,0,0,0,0,0,0,0,0,0,0,0,0,0,0,0,0,0,0,0,0,0,0,0,0,0,0,0,0,0,0,0,0,0,0,0,0,0,0,0,0,0,0,0,0,0,0,0,0,0,0,0,0,0,0,0,0,0,0,0,0,0,0,0,0,0,0,0,0,0,0,0,0,0,0,0,0,0,0,0,0,0,0,0,0,0,0,0,0,0,0,0,0,0,0,0,0,0,0,0,0,0,0],"sum_hessian":[2.7249049E4,2.8881404E3,2.4360908E4,2.3702188E2,2.6511184E3,9.457447E3,1.4903461E4,9.6353645E1,1.4066823E2,2.045827E3,6.0529144E2,8.3080914E2,8.626638E3,1.0040581E4,4.86288E3,5.5043783E0,9.084927E1,1.282542E2,1.241404E1,1.9291594E3,1.1666766E2,5.597114E2,4.5579998E1,2.9315265E2,5.376565E2,7.7951807E3,8.314572E2,2.257909E3,7.7826724E3,4.492076E3,3.708039E2,3.464577E0,8.73847E1,1.1313493E2,1.5119259E1,1.9086406E3,2.0518814E1,6.3829994E0,1.1028467E2,4.4251962E2,1.1719182E2,1.6157758E0,4.3964222E1,2.7875006E1,2.6527765E2,4.7960086E2,5.8055634E1,7.156026E3,6.3915515E2,1.1155046E1,8.203022E2,2.841619E2,1.973747E3,7.6204536E3,1.6221877E2,7.623132E2,3.729763E3,2.314793E2,1.393246E2,1.3753654E0,2.0892115E0,8.319808E1,4.186614E0,1.07394394E2,5.7405386E0,1.1414472E1,3.7047875E0,7.0062494E2,1.2080156E3,1.6142955E0,4.768704E0,9.970561E1,1.0579058E1,9.800637E0,4.32719E2,4.684361E1,7.034821E1,1.9838642E1,2.412558E1,2.625923E1,1.6157758E0,4.4840633E1,2.2043703E2,8.7341545E1,3.922593E2,1.712543E1,4.0930206E1,1.6887279E2,6.987153E3,2.0912622E2,4.3002896E2,9.541021E0,1.6140258E0,1.5180583E2,6.6849634E2,2.587558E2,2.5406101E1,1.686756E2,1.8050713E3,4.4547676E3,3.1656858E3,2.0122385E1,1.4209637E2,6.39611E2,1.227021E2,1.2827731E3,2.44699E3,4.1486515E1,1.8999278E2,4.3964264E1,9.536033E1],"tree_param":{"num_deleted":"0","num_feature":"22","num_nodes":"111","size_leaf_vector":"1"}},{"base_weights":[9.228933E-3,-1.4199564E0,2.7217861E-2,-4.225715E-2,-1.8261144E0,6.74405E-2,-2.5043762E-1,-1.9462919E0,4.1635966E-1,2.848011E-2,-1.9193393E0,7.181982E-3,1.8213288E-1,-1.2015064E0,-2.1074773E-1,-4.936783E-2,2.0287827E-2,9.0984625E-1,-1.7907975E0,-2.253791E0,-1.42784E0,5.2261945E-2,-1.625052E-1,1.3258839E-1,2.7378994E-1,-6.1190665E-1,-5.0337076E-2,1.7334898E-1,-2.837972E-1,1.0214974E0,-3.358032E-2,2.0974074E-2,-4.824782E-2,-2.2880013E0,-2.1066284E-1,-2.0651314E-1,-1.7128009E0,-2.9122433E-2,1.9157787E-1,1.0579917E-1,-2.6501808E-1,3.5613292E-1,9.248378E-2,1.5922317E-1,4.0291858E-1,-1.0532709E0,6.6223353E-1,-4.651256E-1,3.29837E-1,-5.8963186E-1,-1.6901197E-1,2.9865129E-2,1.4287842E-2,-4.104619E-2,-5.2296765E-2,2.0371767E-2,-2.931796E-2,-1.6917966E-2,2.1894334E-2,-2.2260107E-2,-4.5284018E-2,3.96493E-3,-2.1580404E-3,-4.9419E-4,5.361432E-3,-8.202618E-3,4.8089954E-3,-4.4484967E-3,-1.4091605E-2,2.3119742E-4,9.478269E-3,-1.2966934E-2,2.214005E-3,3.7446974E-3,-3.8940392E-2,1.1964775E-2,5.2276007E-3,-2.5664284E-3,-3.718957E-2,2.6270945E-2,-4.2874124E-2,-7.3846662E-3,-4.658316E-2,-1.8782664E-2,8.048008E-3,5.6428495E-3,-1.432106E-2,-4.232914E-4,-7.639183E-3],"categories":[],"categories_nodes":[],"categories_segments":[],"categories_sizes":[],"default_left":[0,0,0,0,0,0,0,0,0,0,0,0,0,0,0,0,0,0,0,0,0,0,0,0,0,0,0,0,0,0,0,0,0,0,0,0,0,0,0,0,0,0,0,0,0,0,0,0,0,0,0,0,0,0,0,0,0,0,0,0,0,0,0,0,0,0,0,0,0,0,0,0,0,0,0,0,0,0,0,0,0,0,0,0,0,0,0,0,0],"id":2,"left_children":[1,3,5,7,9,11,13,15,17,-1,19,21,23,25,27,-1,-1,29,31,33,35,37,39,41,43,45,-1,47,49,51,-1,-1,-1,53,55,57,59,61,63,65,67,69,71,73,75,77,79,81,83,85,87,-1,-1,-1,-1,-1,-1,-1,-1,-1,-1,-1,-1,-1,-1,-1,-1,-1,-1,-1,-1,-1,-1,-1,-1,-1,-1,-1,-1,-1,-1,-1,-1,-1,-1,-1,-1,-1,-1],"loss_changes":[7.019616E2,1.8983539E2,3.0114816E2,6.918252E1,7.952771E1,1.6277539E2,1.2854439E2,1.7712872E1,7.1255325E1,0E0,3.8694946E1,1.1812741E2,3.6802094E1,9.0278E1,9.198367E1,0E0,0E0,1.6195984E1,1.7258656E1,1.0002136E1,3.6528503E1,1.3834209E2,8.9182175E1,4.7193344E1,4.2031097E1,5.2040527E1,0E0,5.252818E1,9.655858E1,5.797802E0,0E0,0E0,0E0,3.4221802E0,6.061391E0,1.58613205E1,2.068457E1,1.1721396E2,5.5796494E1,5.160022E1,5.3079117E1,2.3430496E1,3.2672794E1,4.4774967E1,3.267424E1,4.2877098E1,3.8271114E1,2.0701345E1,2.2899406E1,4.9104492E1,5.572528E1,0E0,0E0,0E0,0E0,0E0,0E0,0E0,0E0,0E0,0E0,0E0,0E0,0E0,0E0,0E0,0E0,0E0,0E0,0E0,0E0,0E0,0E0,0E0,0E0,0E0,0E0,0E0,0E0,0E0,0E0,0E0,0E0,0E0,0E0,0E0,0E0,0E0,0E0],"parents":[2147483647,0,0,1,1,2,2,3,3,4,4,5,5,6,6,7,7,8,8,10,10,11,11,12,12,13,13,14,14,17,17,18,18,19,19,20,20,21,21,22,22,23,23,24,24,25,25,27,27,28,28,29,29,33,33,34,34,35,35,36,36,37,37,38,38,39,39,40,40,41,41,42,42,43,43,44,44,45,45,46,46,47,47,48,48,49,49,50,50],"right_children":[2,4,6,8,10,12,14,16,18,-1,20,22,24,26,28,-1,-1,30,32,34,36,38,40,42,44,46,-1,48,50,52,-1,-1,-1,54,56,58,60,62,64,66,68,70,72,74,76,78,80,82,84,86,88,-1,-1,-1,-1,-1,-1,-1,-1,-1,-1,-1,-1,-1,-1,-1,-1,-1,-1,-1,-1,-1,-1,-1,-1,-1,-1,-1,-1,-1,-1,-1,-1,-1,-1,-1,-1,-1,-1],"split_conditions":[4.8961583E-1,-2.6249755E-3,5.040046E-1,-4.997547E0,-1.6174574E2,1.1280167E0,6.0698915E-1,1.4286265E-3,1.1190251E-1,2.848011E-2,4.5666888E-1,1.7E1,2.3613716E-3,5.6923074E-1,-2.870785E-3,-4.936783E-2,2.0287827E-2,1.3E1,3.988654E-1,1.2104683E2,-1.906613E1,1.2202257E-3,-1.5649892E-3,-2.7815081E-2,1.3860205E0,2.4640223E-3,-5.0337076E-2,-3.3001712E-1,-5.5207696E-2,-1.178865E-1,-3.358032E-2,2.0974074E-2,-4.824782E-2,-9.818106E0,4.9859738E-1,1.4E1,9E0,-4.059379E1,4E0,8.505815E-1,5.2861126E1,-7.9131386E1,-2.0393059E-2,6.303307E-1,5.9852844E1,-1.906613E1,5.4933393E-1,2.1E1,-1.4197037E2,-2.4821274E-3,9.403399E1,2.9865129E-2,1.4287842E-2,-4.104619E-2,-5.2296765E-2,2.0371767E-2,-2.931796E-2,-1.6917966E-2,2.1894334E-2,-2.2260107E-2,-4.5284018E-2,3.96493E-3,-2.1580404E-3,-4.9419E-4,5.361432E-3,-8.202618E-3,4.8089954E-3,-4.4484967E-3,-1.4091605E-2,2.3119742E-4,9.478269E-3,-1.2966934E-2,2.214005E-3,3.7446974E-3,-3.8940392E-2,1.1964775E-2,5.2276007E-3,-2.5664284E-3,-3.718957E-2,2.6270945E-2,-4.2874124E-2,-7.3846662E-3,-4.658316E-2,-1.8782664E-2,8.048008E-3,5.6428495E-3,-1.432106E-2,-4.232914E-4,-7.639183E-3],"split_indices":[2,10,10,18,18,2,2,9,14,0,2,3,9,10,13,0,0,3,2,18,17,9,13,10,2,9,0,14,14,10,0,0,0,17,10,3,3,17,3,2,17,17,10,14,17,17,10,3,17,11,18,0,0,0,0,0,0,0,0,0,0,0,0,0,0,0,0,0,0,0,0,0,0,0,0,0,0,0,0,0,0,0,0,0,0,0,0,0,0],"split_type":[0,0,0,0,0,0,0,0,0,0,0,0,0,0,0,0,0,0,0,0,0,0,0,0,0,0,0,0,0,0,0,0,0,0,0,0,0,0,0,0,0,0,0,0,0,0,0,0,0,0,0,0,0,0,0,0,0,0,0,0,0,0,0,0,0,0,0,0,0,0,0,0,0,0,0,0,0,0,0,0,0,0,0,0,0,0,0,0,0],"sum_hessian":[2.7301068E4,3.3839395E2,2.6962674E4,7.7298676E1,2.6109525E2,2.355162E4,3.411055E3,1.4374866E1,6.2923813E1,7.12367E0,2.5397159E2,1.5440407E4,8.1112114E3,1.3547455E2,3.2755803E3,1.3005695E1,1.3691704E0,5.1906162E1,1.101765E1,1.4899739E2,1.0497419E2,1.2199988E4,3.2404192E3,5.266755E3,2.8444563E3,9.02992E1,4.5175343E1,5.232005E2,2.75238E3,5.0224194E1,1.6819698E0,1.3889544E0,9.6286955E0,1.464258E2,2.5715985E0,2.018539E1,8.47888E1,7.701679E3,4.498309E3,8.958091E2,2.34461E3,7.999461E2,4.466809E3,1.5083956E3,1.3360608E3,6.719581E1,2.3103392E1,1.0260353E2,4.2059695E2,7.499829E2,2.0023969E3,2.3319036E1,2.6905155E1,4.433234E1,1.0209346E2,1.3717835E0,1.199815E0,1.3938516E1,6.2468753E0,3.2484936E1,5.2303867E1,1.9264884E3,5.7751904E3,9.546266E2,3.5436829E3,1.7404395E2,7.2176514E2,2.0421666E3,3.0244348E2,1.5778865E2,6.421575E2,6.554188E1,4.401267E3,1.4979429E3,1.0452785E1,6.799643E2,6.560965E2,2.8721338E1,3.8474472E1,1.9528875E1,3.5745158E0,9.687894E1,5.724593E0,1.4329872E1,4.062671E2,6.1558784E1,6.8842413E2,1.1121122E3,8.902847E2],"tree_param":{"num_deleted":"0","num_feature":"22","num_nodes":"89","size_leaf_vector":"1"}},{"base_weights":[1.8167982E-2,-3.154834E-1,9.393226E-2,-8.1772906E-1,-2.7298495E-1,9.716101E-3,1.5474762E-1,-2.2217565E0,-5.3121024E-1,-6.198192E-1,-2.1136563E-1,-9.4875336E-2,1.01706915E-1,2.362582E-1,7.239924E-2,1.35328015E-2,-2.3022761E0,-9.973326E-1,1.3577765E-1,-2.3761134E-1,-8.915144E-1,-3.5535303E-1,-9.0121605E-2,-2.5435826E-1,-2.003527E-2,-7.8365356E-1,1.1617956E-1,2.6186645E-1,-6.0179733E-2,2.937296E-2,2.684456E-1,-1.368032E0,-5.121112E-2,-4.7626638E-1,-1.7811105E0,2.8303468E-1,-4.719896E-2,1.0258609E0,-3.376627E-1,6.740653E-1,-9.5668066E-1,-5.72892E-1,-2.1650134E-1,-7.757991E-2,-4.9944896E-2,-3.927385E-1,-3.214258E-2,-6.10751E-2,3.7000585E-1,-2.2896612E-1,-2.1800923E0,3.6316857E-2,2.8800845E-1,1.6876948E-1,3.53359E-1,4.5970103E-1,-2.762026E-1,-1.8189526E-1,8.183856E-2,1.8530166E-1,4.5553094E-1,-4.34502E-2,8.240336E-3,-7.158748E-4,-1.9591052E-2,-4.5575667E-2,-1.9757962E-2,-1.1281942E-2,1.5232703E-2,-3.2100182E-2,2.7446985E-2,-5.638899E-3,-4.0067486E-2,-3.2047138E-2,2.0840902E-2,-2.986407E-2,-1.542892E-2,2.0442463E-2,-1.2881421E-2,3.7633134E-3,-6.638036E-3,-2.9942456E-3,1.1641154E-2,-1.5802331E-3,-1.0826947E-2,-1.0594958E-2,1.5936311E-3,-1.2704346E-4,-5.159776E-3,-1.7822888E-2,1.0399522E-2,1.5866894E-2,-1.4077616E-2,-1.5259233E-2,-5.1893428E-2,-1.432067E-3,3.2817693E-3,-1.3617618E-2,6.839679E-3,7.2368043E-3,1.5249816E-3,1.3413789E-2,6.3477824E-3,-1.5456131E-2,1.174339E-2,-4.496816E-3,-3.2075975E-2,-9.96307E-3,4.6446812E-4,3.0853013E-3,-1.7242582E-3,5.958757E-3,-3.8550978E-3,1.0581404E-2,-4.4276707E-2],"categories":[],"categories_nodes":[],"categories_segments":[],"categories_sizes":[],"default_left":[0,0,0,0,0,0,0,0,0,0,0,0,0,0,0,0,0,0,0,0,0,0,0,0,0,0,0,0,0,0,0,0,0,0,0,0,0,0,0,0,0,0,0,0,0,0,0,0,0,0,0,0,0,0,0,0,0,0,0,0,0,0,0,0,0,0,0,0,0,0,0,0,0,0,0,0,0,0,0,0,0,0,0,0,0,0,0,0,0,0,0,0,0,0,0,0,0,0,0,0,0,0,0,0,0,0,0,0,0,0,0,0,0,0,0],"id":3,"left_children":[1,3,5,7,9,11,13,15,17,19,21,23,25,27,29,-1,31,33,35,37,39,41,43,45,47,49,51,53,55,57,59,61,-1,63,65,67,-1,69,71,73,75,77,79,81,-1,83,85,87,89,91,93,95,97,99,101,103,105,107,109,111,113,-1,-1,-1,-1,-1,-1,-1,-1,-1,-1,-1,-1,-1,-1,-1,-1,-1,-1,-1,-1,-1,-1,-1,-1,-1,-1,-1,-1,-1,-1,-1,-1,-1,-1,-1,-1,-1,-1,-1,-1,-1,-1,-1,-1,-1,-1,-1,-1,-1,-1,-1,-1,-1,-1],"loss_changes":[6.908579E2,1.0772656E2,1.1406676E2,1.5734189E2,9.9555115E1,8.9876015E1,8.679016E1,1.6709534E1,1.0229238E2,7.280658E1,6.913934E1,5.2169193E1,6.377334E1,4.935083E1,5.4269722E1,0E0,1.5671692E0,7.81924E1,4.73227E1,3.7451168E1,4.2538727E1,5.45755E1,6.009469E1,4.2916267E1,4.7663696E1,6.15174E1,6.7105576E1,5.0896057E1,5.8255615E1,5.8515205E1,1.792736E1,9.286198E0,0E0,2.2630592E1,2.0512375E1,4.4655308E1,0E0,1.566559E1,3.0886377E1,1.2308144E1,3.9790802E1,2.875827E1,4.003498E1,8.1845726E1,0E0,3.040155E1,2.6314602E1,2.6585848E1,3.9044235E1,2.4536947E1,6.0631866E0,3.9999985E1,4.32603E1,4.8696083E1,4.723706E1,1.5921249E1,2.9543621E1,6.0173244E1,4.226204E1,2.6953304E1,3.376841E1,0E0,0E0,0E0,0E0,0E0,0E0,0E0,0E0,0E0,0E0,0E0,0E0,0E0,0E0,0E0,0E0,0E0,0E0,0E0,0E0,0E0,0E0,0E0,0E0,0E0,0E0,0E0,0E0,0E0,0E0,0E0,0E0,0E0,0E0,0E0,0E0,0E0,0E0,0E0,0E0,0E0,0E0,0E0,0E0,0E0,0E0,0E0,0E0,0E0,0E0,0E0,0E0,0E0,0E0],"parents":[2147483647,0,0,1,1,2,2,3,3,4,4,5,5,6,6,7,7,8,8,9,9,10,10,11,11,12,12,13,13,14,14,16,16,17,17,18,18,19,19,20,20,21,21,22,22,23,23,24,24,25,25,26,26,27,27,28,28,29,29,30,30,31,31,33,33,34,34,35,35,37,37,38,38,39,39,40,40,41,41,42,42,43,43,45,45,46,46,47,47,48,48,49,49,50,50,51,51,52,52,53,53,54,54,55,55,56,56,57,57,58,58,59,59,60,60],"right_children":[2,4,6,8,10,12,14,16,18,20,22,24,26,28,30,-1,32,34,36,38,40,42,44,46,48,50,52,54,56,58,60,62,-1,64,66,68,-1,70,72,74,76,78,80,82,-1,84,86,88,90,92,94,96,98,100,102,104,106,108,110,112,114,-1,-1,-1,-1,-1,-1,-1,-1,-1,-1,-1,-1,-1,-1,-1,-1,-1,-1,-1,-1,-1,-1,-1,-1,-1,-1,-1,-1,-1,-1,-1,-1,-1,-1,-1,-1,-1,-1,-1,-1,-1,-1,-1,-1,-1,-1,-1,-1,-1,-1,-1,-1,-1,-1],"split_conditions":[6.369288E-1,2.7467325E-1,-2.5377747E1,1.1426574E1,4E0,1.355892E0,1.2E1,-5.1086727E1,1.7568249E1,-1.3539803E1,3.0497052E-3,-1.2248523E2,2.51548E-1,3.3617044E2,2.6303036E0,1.35328015E-2,-1.0846995E-3,1.1E1,3.6675017E0,1.0523695E1,-2.1376391E-1,4.6359673E-1,2.8510934E2,8.87175E-1,3.2569798E1,-1.8918517E2,-1.6332098E2,1.113069E0,3.5700016E1,4.712584E-1,4.1229794E1,-3.5420517E-4,-5.121112E-2,-1.092921E1,2.600622E-1,-1.0201474E1,-4.719896E-2,-4.6889424E-2,3.4794655E1,-4.4961613E1,-1.2883921E1,-3.7906906E-3,-3.1474133E1,3.353481E1,-4.9944896E-2,-1.3892234E-3,8.354274E-1,1.6E1,-3.3001712E-1,2.8008837E1,-2.6737028E-3,1.6E1,3.241822E-1,7.8365E-1,4.0327305E1,2.6002356E2,5.739718E-1,1.1570933E0,2.3178253E-1,3.939067E2,1.7613387E-2,-4.34502E-2,8.240336E-3,-7.158748E-4,-1.9591052E-2,-4.5575667E-2,-1.9757962E-2,-1.1281942E-2,1.5232703E-2,-3.2100182E-2,2.7446985E-2,-5.638899E-3,-4.0067486E-2,-3.2047138E-2,2.0840902E-2,-2.986407E-2,-1.542892E-2,2.0442463E-2,-1.2881421E-2,3.7633134E-3,-6.638036E-3,-2.9942456E-3,1.1641154E-2,-1.5802331E-3,-1.0826947E-2,-1.0594958E-2,1.5936311E-3,-1.2704346E-4,-5.159776E-3,-1.7822888E-2,1.0399522E-2,1.5866894E-2,-1.4077616E-2,-1.5259233E-2,-5.1893428E-2,-1.432067E-3,3.2817693E-3,-1.3617618E-2,6.839679E-3,7.2368043E-3,1.5249816E-3,1.3413789E-2,6.3477824E-3,-1.5456131E-2,1.174339E-2,-4.496816E-3,-3.2075975E-2,-9.96307E-3,4.6446812E-4,3.0853013E-3,-1.7242582E-3,5.958757E-3,-3.8550978E-3,1.0581404E-2,-4.4276707E-2],"split_indices":[1,1,16,21,3,1,3,16,18,18,14,18,19,18,1,0,12,3,17,21,14,1,18,19,21,18,16,1,21,19,21,13,0,18,1,17,0,17,21,17,17,13,17,21,0,13,1,3,14,21,12,3,19,1,16,16,14,1,14,18,13,0,0,0,0,0,0,0,0,0,0,0,0,0,0,0,0,0,0,0,0,0,0,0,0,0,0,0,0,0,0,0,0,0,0,0,0,0,0,0,0,0,0,0,0,0,0,0,0,0,0,0,0,0,0],"split_type":[0,0,0,0,0,0,0,0,0,0,0,0,0,0,0,0,0,0,0,0,0,0,0,0,0,0,0,0,0,0,0,0,0,0,0,0,0,0,0,0,0,0,0,0,0,0,0,0,0,0,0,0,0,0,0,0,0,0,0,0,0,0,0,0,0,0,0,0,0,0,0,0,0,0,0,0,0,0,0,0,0,0,0,0,0,0,0,0,0,0,0,0,0,0,0,0,0,0,0,0,0,0,0,0,0,0,0,0,0,0,0,0,0,0,0],"sum_hessian":[2.73273E4,5.0564595E3,2.2270842E4,3.930588E2,4.663401E3,9.339209E3,1.2931634E4,6.547204E1,3.2758676E2,7.021542E2,3.9612466E3,4.3702754E3,4.9689336E3,6.4979365E3,6.433697E3,1.6109641E0,6.3861073E1,1.9253737E2,1.350494E2,2.9252225E2,4.096319E2,1.8099037E3,2.151343E3,1.3950494E3,2.9752258E3,7.906404E1,4.8898696E3,5.9813457E3,5.1659106E2,5.276757E3,1.1569396E3,6.4438863E0,5.7417187E1,1.16616684E2,7.592069E1,1.2785145E2,7.19795E0,2.0785444E1,2.717368E2,1.5995913E1,3.93636E2,7.0393024E2,1.1059734E3,2.1403557E3,1.0987176E1,8.5922034E2,5.358291E2,2.6927412E3,2.8248474E2,5.7419914E1,2.1644127E1,3.3391223E3,1.5507473E3,2.9660889E3,3.0152568E3,1.5131302E2,3.6527805E2,1.0492352E3,4.227522E3,8.0235126E2,3.545883E2,4.5817795E0,1.8621066E0,5.830873E1,5.8307953E1,5.3460205E1,2.2460487E1,4.4027786E1,8.382366E1,1.4332275E0,1.9352217E1,2.6006052E2,1.1676283E1,1.434188E0,1.4561725E1,1.384435E2,2.551925E2,1.1322471E1,6.926078E2,2.1070822E2,8.952652E2,1.947099E3,1.9325684E2,2.2186746E2,6.373529E2,9.975697E1,4.3607214E2,2.0589285E3,6.338125E2,2.3921637E1,2.585631E2,1.7330666E1,4.008925E1,3.520354E0,1.8123774E1,1.7718201E3,1.5673021E3,4.8448936E1,1.5022983E3,1.0914589E3,1.87463E3,5.3144714E2,2.4838096E3,9.846433E0,1.4146658E2,3.4729602E2,1.7982E1,4.3970526E2,6.0952997E2,3.0622732E3,1.1652487E3,6.410915E2,1.6125975E2,3.5029095E2,4.2973557E0],"tree_param":{"num_deleted":"0","num_feature":"22","num_nodes":"115","size_leaf_vector":"1"}},{"base_weights":[3.5705129E-3,-1.7574577E-1,1.471765E-1,-1.3375803E0,-1.4352185E-1,1.5905099E-1,-3.5840145E-1,4.76449E-1,-1.7434212E0,-3.6508483E-1,-1.3250557E-3,1.1824277E-1,2.5088155E-1,-2.0205817E0,-2.1250986E-1,-4.1790895E-2,6.9984686E-1,-2.2620614E0,-1.2331437E0,-6.388079E-1,-1.3404731E-1,8.9151345E-2,-3.312262E-1,-4.6189547E-2,1.2028218E-1,3.9778316E-1,1.6424933E-1,-8.1086066E-4,-2.2002926E0,6.112412E-2,-9.3620807E-1,1.0834919E0,-4.0827504E-1,-1.3929382E-1,-4.9538963E-2,-2.1787708E0,-8.5916E-1,-2.857092E-1,-8.37709E-1,-7.7939215E-3,-4.827804E-1,-4.0985507E-1,1.2144817E-1,-5.2444316E-2,-2.7975157E-1,-1.5647667E-2,1.5337056E-1,4.1116413E-2,4.5710897E-1,1.8262717E-1,-3.3224446E-1,-5.1821083E-2,-5.964866E-1,-1.8317642E0,1.6006222E-1,-4.6453214E-1,-5.187623E-2,2.6472349E-2,-3.285188E-2,-4.4974726E-2,2.2004705E-2,-2.7632639E-2,2.1151511E-2,-6.473637E-3,-4.9916513E-2,8.161445E-3,-2.360157E-2,-4.3463383E-2,-3.2990105E-3,-2.8017245E-2,-1.3798211E-2,-8.508271E-3,1.8299744E-3,-9.133563E-3,-4.2169757E-2,-4.9648166E-2,-7.2761513E-3,2.7175478E-3,-4.989725E-2,-1.210016E-2,-2.1867675E-3,-6.358674E-3,2.074525E-3,4.4269906E-3,1.1592578E-3,3.3839997E-3,-3.0821959E-2,1.127417E-2,9.1554853E-4,3.3292786E-4,5.043549E-3,-2.7770584E-4,-2.810939E-2,-3.582232E-2,2.0672893E-2,-4.8997186E-2,3.1498543E-3,6.0702106E-3,-2.90585E-2,-2.2046998E-2,1.692432E-2],"categories":[],"categories_nodes":[],"categories_segments":[],"categories_sizes":[],"default_left":[0,0,0,0,0,0,0,0,0,0,0,0,0,0,0,0,0,0,0,0,0,0,0,0,0,0,0,0,0,0,0,0,0,0,0,0,0,0,0,0,0,0,0,0,0,0,0,0,0,0,0,0,0,0,0,0,0,0,0,0,0,0,0,0,0,0,0,0,0,0,0,0,0,0,0,0,0,0,0,0,0,0,0,0,0,0,0,0,0,0,0,0,0,0,0,0,0,0,0,0,0],"id":4,"left_children":[1,3,5,7,9,11,13,15,17,19,21,23,25,27,29,-1,31,33,35,37,39,41,43,-1,45,47,49,-1,51,53,55,57,59,61,-1,63,65,67,69,71,73,75,77,-1,79,81,83,85,87,89,91,-1,93,95,97,99,-1,-1,-1,-1,-1,-1,-1,-1,-1,-1,-1,-1,-1,-1,-1,-1,-1,-1,-1,-1,-1,-1,-1,-1,-1,-1,-1,-1,-1,-1,-1,-1,-1,-1,-1,-1,-1,-1,-1,-1,-1,-1,-1,-1,-1],"loss_changes":[7.0157544E2,4.5341513E2,9.08822E1,2.4146106E2,3.7145255E2,5.536606E1,8.383426E1,3.4093014E1,6.7954285E1,2.9137878E2,2.1440707E2,4.757538E1,5.7802795E1,9.866249E0,6.3537453E1,0E0,2.4317501E1,1.1412781E1,4.6556778E1,1.4789905E2,1.1009278E2,9.090108E1,1.6707765E2,0E0,4.6004562E1,3.5658173E1,2.6174896E1,0E0,7.178177E0,4.403194E1,6.0179344E1,1.8086731E1,3.8705887E1,5.9203515E0,0E0,9.541519E0,2.9907455E1,1.7453769E2,1.22154724E2,6.624187E1,5.613008E1,4.574036E1,6.430136E1,0E0,7.605287E1,6.294968E1,4.2966568E1,4.164693E1,4.028723E1,2.3968742E1,3.1904837E1,0E0,8.752736E0,1.0667435E1,4.1574345E1,4.851007E1,0E0,0E0,0E0,0E0,0E0,0E0,0E0,0E0,0E0,0E0,0E0,0E0,0E0,0E0,0E0,0E0,0E0,0E0,0E0,0E0,0E0,0E0,0E0,0E0,0E0,0E0,0E0,0E0,0E0,0E0,0E0,0E0,0E0,0E0,0E0,0E0,0E0,0E0,0E0,0E0,0E0,0E0,0E0,0E0,0E0],"parents":[2147483647,0,0,1,1,2,2,3,3,4,4,5,5,6,6,7,7,8,8,9,9,10,10,11,11,12,12,13,13,14,14,16,16,17,17,18,18,19,19,20,20,21,21,22,22,24,24,25,25,26,26,28,28,29,29,30,30,31,31,32,32,33,33,35,35,36,36,37,37,38,38,39,39,40,40,41,41,42,42,44,44,45,45,46,46,47,47,48,48,49,49,50,50,52,52,53,53,54,54,55,55],"right_children":[2,4,6,8,10,12,14,16,18,20,22,24,26,28,30,-1,32,34,36,38,40,42,44,-1,46,48,50,-1,52,54,56,58,60,62,-1,64,66,68,70,72,74,76,78,-1,80,82,84,86,88,90,92,-1,94,96,98,100,-1,-1,-1,-1,-1,-1,-1,-1,-1,-1,-1,-1,-1,-1,-1,-1,-1,-1,-1,-1,-1,-1,-1,-1,-1,-1,-1,-1,-1,-1,-1,-1,-1,-1,-1,-1,-1,-1,-1,-1,-1,-1,-1,-1,-1],"split_conditions":[2.8649545E-3,4.8961583E-1,5.862794E-1,-4.0717162E-2,1E0,4.8181717E-3,-3.2840765E2,1.4085718E-3,1.230329E-3,7.060607E-1,4.8989773E-1,4.5666888E-1,2.2338068E0,2.9337974E-3,1.8E1,-4.1790895E-2,-8.340086E-2,2.3612586E-1,4.3280065E-1,1.2921059E-1,1.4E1,2E0,-1.4229224E2,-4.6189547E-2,-1.4229224E2,-2.3074806E2,2.3E1,-8.1086066E-4,1.963478E0,8.1768423E-1,3.9875424E-3,7.9901764E1,-5.492096E-2,1.4127958E-1,-4.9538963E-2,1.2824436E-3,2.253618E-2,-8.4075745E1,6.995941E-1,-1.2828996E2,5.9016323E-1,-5.492096E-2,2.4163947E0,-5.2444316E-2,1.8924355E-3,3.4564375E-3,1.6E1,-2.4650801E2,2.3421857E2,1.131723E0,2.6777783E2,-5.1821083E-2,7.584418E-6,3.6804336E-3,6.8690454E2,2.8510934E2,-5.187623E-2,2.6472349E-2,-3.285188E-2,-4.4974726E-2,2.2004705E-2,-2.7632639E-2,2.1151511E-2,-6.473637E-3,-4.9916513E-2,8.161445E-3,-2.360157E-2,-4.3463383E-2,-3.2990105E-3,-2.8017245E-2,-1.3798211E-2,-8.508271E-3,1.8299744E-3,-9.133563E-3,-4.2169757E-2,-4.9648166E-2,-7.2761513E-3,2.7175478E-3,-4.989725E-2,-1.210016E-2,-2.1867675E-3,-6.358674E-3,2.074525E-3,4.4269906E-3,1.1592578E-3,3.3839997E-3,-3.0821959E-2,1.127417E-2,9.1554853E-4,3.3292786E-4,5.043549E-3,-2.7770584E-4,-2.810939E-2,-3.582232E-2,2.0672893E-2,-4.8997186E-2,3.1498543E-3,6.0702106E-3,-2.90585E-2,-2.2046998E-2,1.692432E-2],"split_indices":[0,2,10,10,7,0,16,0,0,1,10,2,1,0,3,0,10,19,2,10,3,3,18,0,18,16,3,0,19,2,0,16,10,10,0,0,10,18,2,18,10,10,1,0,0,0,3,18,18,2,16,0,13,0,16,18,0,0,0,0,0,0,0,0,0,0,0,0,0,0,0,0,0,0,0,0,0,0,0,0,0,0,0,0,0,0,0,0,0,0,0,0,0,0,0,0,0,0,0,0,0],"split_type":[0,0,0,0,0,0,0,0,0,0,0,0,0,0,0,0,0,0,0,0,0,0,0,0,0,0,0,0,0,0,0,0,0,0,0,0,0,0,0,0,0,0,0,0,0,0,0,0,0,0,0,0,0,0,0,0,0,0,0,0,0,0,0,0,0,0,0,0,0,0,0,0,0,0,0,0,0,0,0,0,0,0,0,0,0,0,0,0,0,0,0,0,0,0,0,0,0,0,0,0,0],"sum_hessian":[2.72427E4,1.2114937E4,1.5127764E4,3.258513E2,1.1789085E4,1.4781282E4,3.4648163E2,5.954095E1,2.6631033E2,4.607841E3,7.181244E3,1.0235193E4,4.546089E3,2.6920425E1,3.195612E2,4.3807364E0,5.5160213E1,1.303704E2,1.3593994E2,2.1082795E3,2.4995613E3,5.6362227E3,1.5450216E3,8.2549515E0,1.0226938E4,1.6850945E3,2.8609941E3,2.337634E0,2.4582792E1,2.3254884E2,8.701236E1,4.0990902E1,1.41693125E1,2.6176903E0,1.2775272E2,3.7158325E1,9.878161E1,7.6055066E2,1.3477289E3,1.835918E3,6.636432E2,3.4190366E2,5.294319E3,3.572167E1,1.5092999E3,2.002211E3,8.224728E3,2.405573E2,1.4445372E3,2.7594834E3,1.0151079E2,2.129211E1,3.2906814E0,1.0681209E1,2.2186763E2,6.6943504E1,2.0068857E1,3.9295734E1,1.6951694E0,6.30009E0,7.8692226E0,1.2241946E0,1.3934956E0,2.8481498E0,3.4310177E1,1.5857473E1,8.292414E1,5.283755E1,7.077131E2,3.9760422E2,9.5012463E2,3.5410416E2,1.4818138E3,6.398475E2,2.3795685E1,1.1256492E1,3.3064716E2,5.2845576E3,9.761289E0,5.819565E2,9.2734344E2,5.719399E2,1.4302712E3,5.38107E3,2.8436572E3,2.2380377E2,1.6753529E1,1.2426152E3,2.0192201E2,6.5468463E2,2.1047988E3,7.723329E1,2.4277494E1,1.9099698E0,1.3807114E0,8.58797E0,2.093239E0,2.0601643E2,1.5851198E1,4.6352867E1,2.059064E1],"tree_param":{"num_deleted":"0","num_feature":"22","num_nodes":"101","size_leaf_vector":"1"}},{"base_weights":[4.331274E-3,4.4285983E-2,-2.1518531E-1,-2.0326714E-3,1.7467347E-1,1.674062E-1,-2.5524274E-1,1.6079475E-1,-6.543097E-2,2.740608E-1,9.862498E-2,-1.5362504E-1,3.9958274E-1,-3.8498262E-1,-1.0093637E-1,2.4108522E-1,1.0691659E-1,7.890483E-2,-1.1833347E-1,2.5225562E-1,9.1732997E-1,-4.516752E-2,1.0215348E-1,-9.11573E-2,-4.3966938E-2,-1.1001823E0,4.6331674E-1,-1.0456697E0,-3.4685722E-1,-7.8967446E-1,-7.129577E-2,2.2175272E-1,7.258487E-1,6.8492836E-1,9.305186E-2,2.2037494E-1,-4.6176765E-2,-3.8433152E-1,-3.698716E-2,2.7082148E-1,-5.6616324E-1,1.0273848E0,-3.9747E-2,-1.1714864E0,1.07529104E-1,-3.1679064E-1,2.1583301E-1,8.223132E-3,-1.5007411E0,-1.3550967E-1,5.5257386E-1,-1.8876326E0,-8.2492733E-1,-4.1810414E-1,-2.4236409E-2,5.4586437E-3,-1.51458E0,5.349507E-2,-2.879388E-1,-1.2427784E-3,5.446488E-3,1.8492064E-2,-4.0778644E-2,1.9790428E-2,4.7357595E-3,1.1046562E-2,1.5871E-3,-1.6595254E-2,5.033603E-3,-3.7894081E-3,2.5448545E-3,-9.732225E-3,2.0776198E-3,-2.3802181E-3,2.3734118E-3,-4.3373154E-3,6.3182516E-3,3.3032573E-3,-5.140727E-2,2.5144918E-2,-2.346778E-2,2.1229483E-2,-3.9202005E-2,8.441402E-4,4.354205E-3,-1.2338351E-2,9.923687E-3,1.333873E-2,-8.716116E-3,2.9844986E-3,-4.556818E-2,8.569499E-3,-3.3230383E-2,1.0357825E-2,2.8777357E-2,8.04242E-3,-4.5358885E-2,-1.0843331E-2,-3.3605933E-2,-1.2473763E-2,-4.649045E-3,5.823644E-3,-5.5441633E-3,1.3812917E-2,-2.865168E-2,1.3626378E-2,-3.503107E-2,-8.087476E-4,7.401099E-3,-1.2876854E-2,-1.0940519E-3],"categories":[],"categories_nodes":[],"categories_segments":[],"categories_sizes":[],"default_left":[0,0,0,0,0,0,0,0,0,0,0,0,0,0,0,0,0,0,0,0,0,0,0,0,0,0,0,0,0,0,0,0,0,0,0,0,0,0,0,0,0,0,0,0,0,0,0,0,0,0,0,0,0,0,0,0,0,0,0,0,0,0,0,0,0,0,0,0,0,0,0,0,0,0,0,0,0,0,0,0,0,0,0,0,0,0,0,0,0,0,0,0,0,0,0,0,0,0,0,0,0,0,0,0,0,0,0,0,0,0,0],"id":5,"left_children":[1,3,5,7,9,11,13,15,17,19,21,23,25,27,29,31,33,35,37,39,41,-1,43,45,-1,47,49,51,53,55,57,59,61,63,65,67,69,71,73,75,77,79,-1,81,83,85,87,-1,89,91,93,95,97,99,101,103,105,107,109,-1,-1,-1,-1,-1,-1,-1,-1,-1,-1,-1,-1,-1,-1,-1,-1,-1,-1,-1,-1,-1,-1,-1,-1,-1,-1,-1,-1,-1,-1,-1,-1,-1,-1,-1,-1,-1,-1,-1,-1,-1,-1,-1,-1,-1,-1,-1,-1,-1,-1,-1,-1],"loss_changes":[2.3842563E2,1.388951E2,6.4195435E1,1.7520027E2,4.5536835E1,2.9677357E1,7.582852E1,2.0549355E1,9.3284195E1,3.64149E1,2.6730839E1,1.9601263E1,2.2576385E1,5.148477E1,3.5307835E1,1.7731255E1,2.2760746E1,5.7998016E1,1.9341983E2,3.8570694E1,2.785933E1,0E0,2.348803E1,1.1370962E1,0E0,6.3388195E0,1.1948669E1,1.9221909E1,4.4755493E1,4.114913E1,4.4945515E1,1.6231956E1,2.7254314E1,7.0824165E0,2.24789E1,2.1157509E1,3.7263336E1,6.8845184E1,7.440453E1,2.699649E1,7.446074E1,2.6172783E1,0E0,2.2101372E1,2.2032482E1,1.9165642E1,1.7774399E1,0E0,8.252575E0,2.292332E1,1.0125824E1,1.2063889E1,2.0592957E1,5.2064545E1,2.4431952E1,3.0719435E1,1.0239754E1,2.7968958E1,4.4759598E1,0E0,0E0,0E0,0E0,0E0,0E0,0E0,0E0,0E0,0E0,0E0,0E0,0E0,0E0,0E0,0E0,0E0,0E0,0E0,0E0,0E0,0E0,0E0,0E0,0E0,0E0,0E0,0E0,0E0,0E0,0E0,0E0,0E0,0E0,0E0,0E0,0E0,0E0,0E0,0E0,0E0,0E0,0E0,0E0,0E0,0E0,0E0,0E0,0E0,0E0,0E0,0E0],"parents":[2147483647,0,0,1,1,2,2,3,3,4,4,5,5,6,6,7,7,8,8,9,9,10,10,11,11,12,12,13,13,14,14,15,15,16,16,17,17,18,18,19,19,20,20,22,22,23,23,25,25,26,26,27,27,28,28,29,29,30,30,31,31,32,32,33,33,34,34,35,35,36,36,37,37,38,38,39,39,40,40,41,41,43,43,44,44,45,45,46,46,48,48,49,49,50,50,51,51,52,52,53,53,54,54,55,55,56,56,57,57,58,58],"right_children":[2,4,6,8,10,12,14,16,18,20,22,24,26,28,30,32,34,36,38,40,42,-1,44,46,-1,48,50,52,54,56,58,60,62,64,66,68,70,72,74,76,78,80,-1,82,84,86,88,-1,90,92,94,96,98,100,102,104,106,108,110,-1,-1,-1,-1,-1,-1,-1,-1,-1,-1,-1,-1,-1,-1,-1,-1,-1,-1,-1,-1,-1,-1,-1,-1,-1,-1,-1,-1,-1,-1,-1,-1,-1,-1,-1,-1,-1,-1,-1,-1,-1,-1,-1,-1,-1,-1,-1,-1,-1,-1,-1,-1],"split_conditions":[4.8828104E-1,2.4640223E-3,-3.8901453E-3,-2.7220997E-3,1.8513076E-3,-5.027554E-3,8.1104133E-4,-5.8848583E-3,3.54203E-2,4.7731176E-1,3.4497014E-1,4.5983884E-1,4.937069E-1,-9.43478E-1,-2.9551202E2,5.5364418E1,-1.4668259E-1,2.1648478E1,1.6077091E1,4.6458566E-1,9.125452E-1,-4.516752E-2,-3.2840765E2,-7.199796E-1,-4.3966938E-2,2.3670286E-2,-9.3577063E-1,7.858389E-2,1.8692902E2,5.2410614E-1,1.3130905E2,-1.4614714E-2,4.6031752E-1,-4.3893126E-3,1.2302215E1,-9.576142E-1,3.314717E1,2.0465006E-3,1.804105E1,-1.12704076E-1,3.189476E2,4.731339E1,-3.9747E-2,-1.6238108E-1,5.1782797E-3,3.859021E1,1.06426515E-1,8.223132E-3,1.7728106E1,-4.5306175E-3,4.4008872E-1,-3.7906906E-3,2.5949407E-1,5.564585E-1,2.8682892E1,8.2662076E-1,-3.13013E-3,3.4774167E-3,2.4660349E2,-1.2427784E-3,5.446488E-3,1.8492064E-2,-4.0778644E-2,1.9790428E-2,4.7357595E-3,1.1046562E-2,1.5871E-3,-1.6595254E-2,5.033603E-3,-3.7894081E-3,2.5448545E-3,-9.732225E-3,2.0776198E-3,-2.3802181E-3,2.3734118E-3,-4.3373154E-3,6.3182516E-3,3.3032573E-3,-5.140727E-2,2.5144918E-2,-2.346778E-2,2.1229483E-2,-3.9202005E-2,8.441402E-4,4.354205E-3,-1.2338351E-2,9.923687E-3,1.333873E-2,-8.716116E-3,2.9844986E-3,-4.556818E-2,8.569499E-3,-3.3230383E-2,1.0357825E-2,2.8777357E-2,8.04242E-3,-4.5358885E-2,-1.0843331E-2,-3.3605933E-2,-1.2473763E-2,-4.649045E-3,5.823644E-3,-5.5441633E-3,1.3812917E-2,-2.865168E-2,1.3626378E-2,-3.503107E-2,-8.087476E-4,7.401099E-3,-1.2876854E-2,-1.0940519E-3],"split_indices":[10,9,13,12,13,9,12,12,10,10,20,20,10,15,16,21,10,21,21,10,15,0,16,15,0,20,15,20,16,10,16,13,10,9,21,15,21,13,16,10,16,21,0,10,13,21,20,0,21,12,20,13,20,10,21,20,13,13,16,0,0,0,0,0,0,0,0,0,0,0,0,0,0,0,0,0,0,0,0,0,0,0,0,0,0,0,0,0,0,0,0,0,0,0,0,0,0,0,0,0,0,0,0,0,0,0,0,0,0,0,0],"split_type":[0,0,0,0,0,0,0,0,0,0,0,0,0,0,0,0,0,0,0,0,0,0,0,0,0,0,0,0,0,0,0,0,0,0,0,0,0,0,0,0,0,0,0,0,0,0,0,0,0,0,0,0,0,0,0,0,0,0,0,0,0,0,0,0,0,0,0,0,0,0,0,0,0,0,0,0,0,0,0,0,0,0,0,0,0,0,0,0,0,0,0,0,0,0,0,0,0,0,0,0,0,0,0,0,0,0,0,0,0,0,0],"sum_hessian":[2.718218E4,2.2997205E4,4.184975E3,1.6969848E4,6.0273584E3,3.9633823E2,3.7886367E3,4.75526E3,1.2214588E4,2.6116306E3,3.4157275E3,1.6648174E2,2.2985649E2,2.057341E3,1.7312957E3,1.9081766E3,2.8470828E3,3.2760178E3,8.938569E3,2.527352E3,8.42785E1,4.518944E0,3.4112087E3,1.6217365E2,4.3080974E0,8.706895E0,2.211496E2,1.1080147E2,1.9465397E3,7.037598E1,1.6609197E3,1.8363981E3,7.1778625E1,6.555927E1,2.7815237E3,1.5369409E3,1.7390769E3,2.0924958E3,6.8460737E3,2.471945E3,5.5407024E1,8.1658066E1,2.6204422E0,1.342538E1,3.3977832E3,9.345424E1,6.8719406E1,1.8615595E0,6.845336E0,2.8619968E1,1.9252963E2,2.144685E1,8.935462E1,1.5941868E3,3.5235294E2,3.403557E1,3.6340405E1,1.0543472E3,6.065725E2,1.862673E2,1.6501307E3,6.8922516E1,2.8561072E0,4.2853813E1,2.2705456E1,1.20468636E2,2.661055E3,2.0247482E1,1.5166934E3,9.7122626E2,7.678506E2,1.8322494E3,2.6024643E2,4.5635654E3,2.2825083E3,1.1460941E2,2.3573357E3,4.0391E1,1.5016026E1,7.694433E1,4.713732E0,2.9941823E0,1.0431197E1,1.9778207E3,1.4199626E3,7.044834E1,2.3005898E1,4.1617626E1,2.710178E1,2.0879605E0,4.7573752E0,2.1277975E1,7.3419924E0,1.7809526E2,1.4434362E1,1.8564423E0,1.9590406E1,6.347124E1,2.5883379E1,8.8322003E2,7.1096674E2,1.5562338E2,1.9672955E2,2.341072E1,1.0624848E1,1.6136209E0,3.4726784E1,8.034399E2,2.509072E2,2.617117E2,3.448608E2],"tree_param":{"num_deleted":"0","num_feature":"22","num_nodes":"111","size_leaf_vector":"1"}},{"base_weights":[-2.6803077E-3,-4.5134318E-1,5.6479655E-2,-8.5203534E-1,-1.958191E-1,-8.521075E-2,1.4048915E-1,-9.154618E-1,4.0221947E-1,-1.5317015E-1,-7.1335846E-1,-3.0341762E-1,5.652205E-2,9.776928E-2,2.26359E-1,-4.9909788E-1,-1.0115677E0,-1.6760726E0,7.938569E-1,-2.6959237E-1,-2.630317E-2,-1.0450952E0,5.3979393E-2,-4.699632E-1,-1.5726422E-1,8.921638E-2,-3.9201877E-1,-5.1030946E-1,1.07259445E-1,3.0936754E-1,1.03728175E-1,-1.3250387E0,-3.07438E-1,-1.40755E0,-9.073032E-1,-4.74213E-2,1.34929335E-2,-3.4107875E-2,9.067735E-1,-4.119513E-1,3.2145537E-2,5.6356903E-2,-3.5345435E-1,-5.124163E-1,-1.6384773E0,-4.2631723E-2,2.7733064E-1,-4.3293712E-1,-1.6339946E0,-6.6183966E-1,-1.0746957E-1,-1.450683E0,9.8268874E-2,-6.8339896E-1,5.0466177E-3,-3.223539E-1,-5.0478354E-2,1.6098945E-1,1.1435059E-2,-4.600738E-2,3.1420973E-1,4.7424007E-2,2.6661184E-1,-1.5680265E-2,-5.0113406E-2,-2.4246445E-2,-2.6831378E-3,-3.721315E-2,-1.5014238E-2,-1.4589027E-2,-2.5031578E-2,2.0917183E-2,-4.5648105E-3,-4.174494E-2,-8.021939E-3,1.1306758E-2,-2.839871E-3,-2.8207917E-2,1.7336685E-3,-1.5916487E-2,1.7150027E-3,-3.8385242E-2,-3.957945E-3,-1.32947555E-2,-4.256486E-2,-3.5573676E-2,8.867439E-3,-3.332852E-2,-8.879477E-3,1.0521538E-3,-4.083947E-2,-5.994416E-3,-2.1100363E-2,4.3900497E-3,-3.6647194E-3,-5.0805766E-2,-3.0361959E-3,-5.5130885E-4,3.826755E-3,-1.7101636E-2,2.066757E-2,4.2978893E-3,-6.6361865E-3,-2.2840727E-2,-3.4765024E-3,2.7333037E-3,7.371588E-3,-7.457807E-3,9.258783E-4,7.6353396E-3,8.8669703E-4,4.0092805E-4,8.885186E-3,6.6196034E-3,-6.07283E-3],"categories":[],"categories_nodes":[],"categories_segments":[],"categories_sizes":[],"default_left":[0,0,0,0,0,0,0,0,0,0,0,0,0,0,0,0,0,0,0,0,0,0,0,0,0,0,0,0,0,0,0,0,0,0,0,0,0,0,0,0,0,0,0,0,0,0,0,0,0,0,0,0,0,0,0,0,0,0,0,0,0,0,0,0,0,0,0,0,0,0,0,0,0,0,0,0,0,0,0,0,0,0,0,0,0,0,0,0,0,0,0,0,0,0,0,0,0,0,0,0,0,0,0,0,0,0,0,0,0,0,0,0,0,0,0],"id":6,"left_children":[1,3,5,7,9,11,13,15,17,19,21,23,25,27,29,31,33,35,37,39,41,43,45,47,49,51,53,55,57,59,61,63,65,67,69,-1,-1,-1,71,73,75,77,79,81,83,-1,85,87,89,91,93,95,97,99,101,103,-1,105,107,-1,109,111,113,-1,-1,-1,-1,-1,-1,-1,-1,-1,-1,-1,-1,-1,-1,-1,-1,-1,-1,-1,-1,-1,-1,-1,-1,-1,-1,-1,-1,-1,-1,-1,-1,-1,-1,-1,-1,-1,-1,-1,-1,-1,-1,-1,-1,-1,-1,-1,-1,-1,-1,-1,-1],"loss_changes":[7.18189E2,3.225703E2,2.8456824E2,9.798883E1,4.2403053E1,2.7522803E2,5.5031982E1,4.6246887E1,4.997289E1,2.629364E1,3.7313347E1,8.522214E1,7.915889E1,5.7899437E1,5.0713623E1,3.458972E1,3.7874268E1,1.3336435E1,1.5136326E1,3.9894875E1,2.3092964E1,3.1474716E1,2.107994E1,6.986066E1,4.6859024E1,7.025725E1,4.2435116E1,5.2502438E1,5.0818054E1,3.59234E1,1.845604E1,2.3069008E1,2.6938465E1,4.3692383E1,4.3495117E1,0E0,0E0,0E0,3.8538475E0,3.6756897E1,2.427883E1,2.2762714E1,2.8923912E1,2.2794966E1,1.545433E1,0E0,1.1526539E1,3.4738068E1,2.2486572E1,2.0239204E1,3.3429096E1,3.4861427E1,4.940836E1,3.973871E1,9.610802E0,1.6598043E1,0E0,3.890222E1,4.0215794E1,0E0,3.3131927E1,1.5759576E1,1.1805992E1,0E0,0E0,0E0,0E0,0E0,0E0,0E0,0E0,0E0,0E0,0E0,0E0,0E0,0E0,0E0,0E0,0E0,0E0,0E0,0E0,0E0,0E0,0E0,0E0,0E0,0E0,0E0,0E0,0E0,0E0,0E0,0E0,0E0,0E0,0E0,0E0,0E0,0E0,0E0,0E0,0E0,0E0,0E0,0E0,0E0,0E0,0E0,0E0,0E0,0E0,0E0,0E0],"parents":[2147483647,0,0,1,1,2,2,3,3,4,4,5,5,6,6,7,7,8,8,9,9,10,10,11,11,12,12,13,13,14,14,15,15,16,16,17,17,18,18,19,19,20,20,21,21,22,22,23,23,24,24,25,25,26,26,27,27,28,28,29,29,30,30,31,31,32,32,33,33,34,34,38,38,39,39,40,40,41,41,42,42,43,43,44,44,46,46,47,47,48,48,49,49,50,50,51,51,52,52,53,53,54,54,55,55,57,57,58,58,60,60,61,61,62,62],"right_children":[2,4,6,8,10,12,14,16,18,20,22,24,26,28,30,32,34,36,38,40,42,44,46,48,50,52,54,56,58,60,62,64,66,68,70,-1,-1,-1,72,74,76,78,80,82,84,-1,86,88,90,92,94,96,98,100,102,104,-1,106,108,-1,110,112,114,-1,-1,-1,-1,-1,-1,-1,-1,-1,-1,-1,-1,-1,-1,-1,-1,-1,-1,-1,-1,-1,-1,-1,-1,-1,-1,-1,-1,-1,-1,-1,-1,-1,-1,-1,-1,-1,-1,-1,-1,-1,-1,-1,-1,-1,-1,-1,-1,-1,-1,-1,-1],"split_conditions":[1.6614199E-3,1E0,2.8649545E-3,9.2418057E-1,8.1249106E-1,1E0,4.6679215E-3,-2.0596454E-1,1.3694979E-3,2.3566616E0,3.7264597E-1,8.070469E-1,3.463404E-1,-1.514126E2,2.9038188E0,-3.451426E-1,-1.0201474E1,-2.5458624E0,-4.2106488E-1,5.0321186E-1,1.948977E-3,-2.0096386E-4,1.230329E-3,5.9852844E1,-6.776688E1,-1.1029294E2,1.7751439E-3,-1.424699E-1,6.5991455E-1,-1.8275762E-2,8.365436E-3,-8.656807E-4,1.0304574E-3,4.904551E-4,1.9805979E-2,-4.74213E-2,1.34929335E-2,-3.4107875E-2,1.1820156E-3,-4.306656E1,1.2824436E-3,3.0970728E-1,1.1820156E-3,8.8303256E-1,-1.6879775E-1,-4.2631723E-2,6.7888945E-1,2.9293793E-1,-2.3003356E-1,1.2743367E0,1.2633692E-1,2.6392306E-3,-1.2423588E1,1.5910664E2,1.2743367E0,-2.2481627E2,-5.0478354E-2,1.7741121E-1,3.8252327E-1,-4.600738E-2,9.7542366E1,2.4484115E0,9.345841E-1,-1.5680265E-2,-5.0113406E-2,-2.4246445E-2,-2.6831378E-3,-3.721315E-2,-1.5014238E-2,-1.4589027E-2,-2.5031578E-2,2.0917183E-2,-4.5648105E-3,-4.174494E-2,-8.021939E-3,1.1306758E-2,-2.839871E-3,-2.8207917E-2,1.7336685E-3,-1.5916487E-2,1.7150027E-3,-3.8385242E-2,-3.957945E-3,-1.32947555E-2,-4.256486E-2,-3.5573676E-2,8.867439E-3,-3.332852E-2,-8.879477E-3,1.0521538E-3,-4.083947E-2,-5.994416E-3,-2.1100363E-2,4.3900497E-3,-3.6647194E-3,-5.0805766E-2,-3.0361959E-3,-5.5130885E-4,3.826755E-3,-1.7101636E-2,2.066757E-2,4.2978893E-3,-6.6361865E-3,-2.2840727E-2,-3.4765024E-3,2.7333037E-3,7.371588E-3,-7.457807E-3,9.258783E-4,7.6353396E-3,8.8669703E-4,4.0092805E-4,8.885186E-3,6.6196034E-3,-6.07283E-3],"split_indices":[0,7,0,1,1,7,0,14,0,17,14,1,14,17,1,14,17,17,14,1,9,11,0,17,17,17,11,14,20,9,0,11,0,11,14,0,0,0,11,17,0,19,11,1,14,0,19,19,14,1,20,0,17,17,1,17,0,14,19,0,17,19,20,0,0,0,0,0,0,0,0,0,0,0,0,0,0,0,0,0,0,0,0,0,0,0,0,0,0,0,0,0,0,0,0,0,0,0,0,0,0,0,0,0,0,0,0,0,0,0,0,0,0,0,0],"split_type":[0,0,0,0,0,0,0,0,0,0,0,0,0,0,0,0,0,0,0,0,0,0,0,0,0,0,0,0,0,0,0,0,0,0,0,0,0,0,0,0,0,0,0,0,0,0,0,0,0,0,0,0,0,0,0,0,0,0,0,0,0,0,0,0,0,0,0,0,0,0,0,0,0,0,0,0,0,0,0,0,0,0,0,0,0,0,0,0,0,0,0,0,0,0,0,0,0,0,0,0,0,0,0,0,0,0,0,0,0,0,0,0,0,0,0],"sum_hessian":[2.7055734E4,3.1511462E3,2.3904588E4,1.226116E3,1.9250304E3,8.897704E3,1.5006883E4,1.1673541E3,5.8761787E1,1.779669E3,1.4536148E2,3.5031836E3,5.3945205E3,1.002275E4,4.9841333E3,2.2008115E2,9.47273E2,8.79737E0,4.996442E1,9.274497E2,8.5221924E2,1.01233894E2,4.4127583E1,1.636329E3,1.8668547E3,5.0287725E3,3.6574826E2,1.532083E2,9.869541E3,2.9713262E3,2.012807E3,4.0337387E1,1.7974376E2,1.9483127E2,7.524417E2,7.187609E0,1.6097604E0,1.6718831E0,4.8292534E1,6.2989984E2,2.9754984E2,6.80985E2,1.7123422E2,5.432759E1,4.6906307E1,3.5821722E0,4.054541E1,1.587214E3,4.9114952E1,1.6658066E2,1.700274E3,2.8458801E1,5.0003135E3,2.1053174E2,1.5521654E2,1.4005757E2,1.3150723E1,6.323302E3,3.5462395E3,4.9927897E0,2.9663335E3,1.496724E3,5.1608295E2,2.641654E1,1.392085E1,3.178985E1,1.479539E2,1.3283711E2,6.1994156E1,4.0000018E2,3.5244153E2,4.5721817E1,2.5707197E0,1.4383833E1,6.15516E2,7.371881E1,2.2383102E2,1.0947481E1,6.7003754E2,9.008427E1,8.1149956E1,1.0229457E1,4.4098133E1,1.2463636E1,3.4442673E1,1.9150884E0,3.863032E1,2.6483406E1,1.5607306E3,6.804066E0,4.2310886E1,7.6619446E1,8.996122E1,2.854638E2,1.4148102E3,1.629829E1,1.2160512E1,1.9578451E3,3.0424685E3,1.9758948E2,1.2942261E1,9.5969154E1,5.9247383E1,2.398171E1,1.1607586E2,5.332304E3,9.9099756E2,2.868371E2,3.2594023E3,2.5793464E3,3.86987E2,1.3885544E3,1.0816962E2,4.8040726E2,3.5675697E1],"tree_param":{"num_deleted":"0","num_feature":"22","num_nodes":"115","size_leaf_vector":"1"}},{"base_weights":[1.5746726E-2,-2.9276067E-1,8.633838E-2,-6.4661807E-1,-6.1296966E-2,8.383458E-3,1.516092E-1,-8.253189E-1,-4.0520403E-1,-3.1730957E-2,-6.1005276E-1,4.021478E-2,-2.8794706E-1,4.310111E-2,1.9081238E-1,-6.038493E-1,-1.1322552E0,-3.5242203E-1,-1.2103635E0,-1.0212408E-1,9.425983E-2,-1.5349777E0,-1.0078666E-1,-6.108956E-2,9.578772E-2,-5.0173354E-1,-1.6926877E-2,4.8671454E-1,2.9368573E-3,2.4317725E-1,9.892345E-2,-8.843983E-1,-3.0685E-1,-6.398506E-1,-1.2908028E0,-4.1198984E-1,3.1829008E-1,-1.7970175E0,-4.210177E-1,1.3140388E-1,-1.7081738E-1,2.890831E-1,-5.4613553E-2,-1.7658263E0,4.7386777E-1,-7.8536314E-1,4.1613138E-1,-8.110244E-2,4.5392781E-1,-1.4434016E0,1.0075817E-1,-7.2310627E-1,-9.808224E-2,-1.822414E0,3.4018207E-2,5.8082944E-1,-3.0061427E-1,-4.390948E-1,3.165225E-2,1.3638555E-1,2.9262462E-1,-1.1424365E-1,2.0916222E-1,-9.370598E-3,-2.585928E-2,-4.735652E-3,-4.176007E-2,-2.895114E-2,-8.8525135E-3,-9.587385E-3,-2.897625E-2,2.8689822E-2,-9.262068E-3,-1.7822647E-2,1.1993669E-2,-1.7395889E-4,-4.586471E-2,8.218718E-3,-2.728546E-2,4.2052106E-3,-1.2905314E-2,-8.269742E-3,-2.0255367E-3,1.0022013E-2,1.0049456E-3,-4.3611974E-2,-7.9028826E-4,-4.4760574E-2,-2.271692E-2,2.4672756E-2,-2.9857002E-2,7.691308E-3,-3.671398E-2,-3.7432153E-2,1.1807284E-2,-3.0943449E-3,1.995144E-3,1.18595E-2,-2.8352622E-2,7.816028E-4,-4.8585787E-2,1.7461596E-3,8.693433E-3,1.0469893E-2,-1.8337755E-2,8.117593E-3,-1.1663116E-2,2.072019E-2,-4.8966095E-2,7.166021E-3,-2.9648584E-3,1.316575E-2,-3.859277E-2,1.323404E-3,-4.389469E-2,-6.0377317E-3,-2.8894166E-2,1.3918539E-3,-7.257934E-3,-3.4055356E-3,4.686264E-3,-6.1372747E-3,6.5324963E-3,6.562838E-3,-3.9062048E-3,7.803896E-3,1.8468095E-3],"categories":[],"categories_nodes":[],"categories_segments":[],"categories_sizes":[],"default_left":[0,0,0,0,0,0,0,0,0,0,0,0,0,0,0,0,0,0,0,0,0,0,0,0,0,0,0,0,0,0,0,0,0,0,0,0,0,0,0,0,0,0,0,0,0,0,0,0,0,0,0,0,0,0,0,0,0,0,0,0,0,0,0,0,0,0,0,0,0,0,0,0,0,0,0,0,0,0,0,0,0,0,0,0,0,0,0,0,0,0,0,0,0,0,0,0,0,0,0,0,0,0,0,0,0,0,0,0,0,0,0,0,0,0,0,0,0,0,0,0,0,0,0,0,0,0,0],"id":7,"left_children":[1,3,5,7,9,11,13,15,17,19,21,23,25,27,29,31,33,35,37,39,41,43,45,47,49,51,53,55,57,59,61,63,65,67,69,71,73,75,77,79,81,83,85,87,89,91,93,95,97,99,101,103,105,107,109,111,113,115,117,119,121,123,125,-1,-1,-1,-1,-1,-1,-1,-1,-1,-1,-1,-1,-1,-1,-1,-1,-1,-1,-1,-1,-1,-1,-1,-1,-1,-1,-1,-1,-1,-1,-1,-1,-1,-1,-1,-1,-1,-1,-1,-1,-1,-1,-1,-1,-1,-1,-1,-1,-1,-1,-1,-1,-1,-1,-1,-1,-1,-1,-1,-1,-1,-1,-1,-1],"loss_changes":[5.959142E2,4.1728836E2,1.1330055E2,8.6586E1,4.99758E1,9.574171E1,5.1547638E1,7.795337E1,3.607852E1,2.5950907E1,7.4024E1,5.160457E1,5.703685E1,5.7333736E1,4.281421E1,5.5897064E1,3.6937256E1,3.2395035E1,2.3524826E1,3.0133057E1,3.044004E1,2.673639E1,3.6644978E1,3.3507454E1,4.542814E1,4.9107437E1,4.0091545E1,1.9970512E1,3.7481148E1,2.9902985E1,7.600797E1,4.890271E1,4.616008E1,1.8757515E1,1.6950928E1,2.4945404E1,1.872065E1,1.7891083E1,1.6604488E1,2.0179848E1,2.372818E1,1.9480995E1,2.0911884E1,9.076477E0,9.806291E0,4.7525917E1,1.7926373E1,3.417155E1,2.1785604E1,2.3177643E1,3.4974045E1,5.6222748E1,4.165116E1,1.73606E1,2.1873932E1,1.9001007E1,1.8527105E1,2.5417503E1,3.3892708E1,4.323669E1,2.5202606E1,3.1255304E1,4.038289E1,0E0,0E0,0E0,0E0,0E0,0E0,0E0,0E0,0E0,0E0,0E0,0E0,0E0,0E0,0E0,0E0,0E0,0E0,0E0,0E0,0E0,0E0,0E0,0E0,0E0,0E0,0E0,0E0,0E0,0E0,0E0,0E0,0E0,0E0,0E0,0E0,0E0,0E0,0E0,0E0,0E0,0E0,0E0,0E0,0E0,0E0,0E0,0E0,0E0,0E0,0E0,0E0,0E0,0E0,0E0,0E0,0E0,0E0,0E0,0E0,0E0,0E0,0E0,0E0],"parents":[2147483647,0,0,1,1,2,2,3,3,4,4,5,5,6,6,7,7,8,8,9,9,10,10,11,11,12,12,13,13,14,14,15,15,16,16,17,17,18,18,19,19,20,20,21,21,22,22,23,23,24,24,25,25,26,26,27,27,28,28,29,29,30,30,31,31,32,32,33,33,34,34,35,35,36,36,37,37,38,38,39,39,40,40,41,41,42,42,43,43,44,44,45,45,46,46,47,47,48,48,49,49,50,50,51,51,52,52,53,53,54,54,55,55,56,56,57,57,58,58,59,59,60,60,61,61,62,62],"right_children":[2,4,6,8,10,12,14,16,18,20,22,24,26,28,30,32,34,36,38,40,42,44,46,48,50,52,54,56,58,60,62,64,66,68,70,72,74,76,78,80,82,84,86,88,90,92,94,96,98,100,102,104,106,108,110,112,114,116,118,120,122,124,126,-1,-1,-1,-1,-1,-1,-1,-1,-1,-1,-1,-1,-1,-1,-1,-1,-1,-1,-1,-1,-1,-1,-1,-1,-1,-1,-1,-1,-1,-1,-1,-1,-1,-1,-1,-1,-1,-1,-1,-1,-1,-1,-1,-1,-1,-1,-1,-1,-1,-1,-1,-1,-1,-1,-1,-1,-1,-1,-1,-1,-1,-1,-1,-1],"split_conditions":[6.369288E-1,1E0,1.2401026E0,5.097571E-1,1.23374886E2,5.168751E1,-1.908941E2,5.3770132E-2,8.9488894E-1,7.7297713E-4,6.940919E-1,-3.0854063E1,1E0,5.4693915E-2,1.9526912E2,-7.489986E0,-6.0980924E-4,2.5452788E-3,9.920503E-1,-3.5260365E1,7.064869E0,6.317931E-1,6.276827E-1,3.3276966E-3,-1.3407816E2,2.623543E-3,3.9676556E-1,-2.2493842E2,1.4316244E0,-2.9379824E1,2.0422165E0,-1.0795101E-3,4.8877254E1,2.5186735E-1,3.490764E-1,-3.0549332E2,6.484149E-1,4.492147E-4,5.062365E-4,2.2717737E1,3.5932386E-1,5.9707844E1,-5.9038954E-4,1.3443129E-3,-9.240022E-4,-1.2957915E-3,4.5682874E-1,3.652003E-1,3.8668704E-3,5.4693915E-2,2.3454808E2,-2.6089402E-3,7.0915796E-4,6.8804926E-1,9.057901E-1,7.072299E-1,-5.8679474E-3,8.1951606E-1,8.774551E-1,5.477905E-1,-7.9392004E-1,1E0,7.021198E-3,-9.370598E-3,-2.585928E-2,-4.735652E-3,-4.176007E-2,-2.895114E-2,-8.8525135E-3,-9.587385E-3,-2.897625E-2,2.8689822E-2,-9.262068E-3,-1.7822647E-2,1.1993669E-2,-1.7395889E-4,-4.586471E-2,8.218718E-3,-2.728546E-2,4.2052106E-3,-1.2905314E-2,-8.269742E-3,-2.0255367E-3,1.0022013E-2,1.0049456E-3,-4.3611974E-2,-7.9028826E-4,-4.4760574E-2,-2.271692E-2,2.4672756E-2,-2.9857002E-2,7.691308E-3,-3.671398E-2,-3.7432153E-2,1.1807284E-2,-3.0943449E-3,1.995144E-3,1.18595E-2,-2.8352622E-2,7.816028E-4,-4.8585787E-2,1.7461596E-3,8.693433E-3,1.0469893E-2,-1.8337755E-2,8.117593E-3,-1.1663116E-2,2.072019E-2,-4.8966095E-2,7.166021E-3,-2.9648584E-3,1.316575E-2,-3.859277E-2,1.323404E-3,-4.389469E-2,-6.0377317E-3,-2.8894166E-2,1.3918539E-3,-7.257934E-3,-3.4055356E-3,4.686264E-3,-6.1372747E-3,6.5324963E-3,6.562838E-3,-3.9062048E-3,7.803896E-3,1.8468095E-3],"split_indices":[1,7,1,1,16,17,16,15,15,9,19,16,7,20,16,17,11,12,15,16,17,1,20,11,17,9,19,16,1,17,1,13,16,15,19,16,19,12,11,17,1,16,12,12,12,13,1,15,9,20,16,11,11,1,1,15,9,20,15,19,15,7,9,0,0,0,0,0,0,0,0,0,0,0,0,0,0,0,0,0,0,0,0,0,0,0,0,0,0,0,0,0,0,0,0,0,0,0,0,0,0,0,0,0,0,0,0,0,0,0,0,0,0,0,0,0,0,0,0,0,0,0,0,0,0,0,0],"split_type":[0,0,0,0,0,0,0,0,0,0,0,0,0,0,0,0,0,0,0,0,0,0,0,0,0,0,0,0,0,0,0,0,0,0,0,0,0,0,0,0,0,0,0,0,0,0,0,0,0,0,0,0,0,0,0,0,0,0,0,0,0,0,0,0,0,0,0,0,0,0,0,0,0,0,0,0,0,0,0,0,0,0,0,0,0,0,0,0,0,0,0,0,0,0,0,0,0,0,0,0,0,0,0,0,0,0,0,0,0,0,0,0,0,0,0,0,0,0,0,0,0,0,0,0,0,0,0],"sum_hessian":[2.7360906E4,5.0942607E3,2.2266645E4,2.013803E3,3.0804575E3,1.0147867E4,1.2118777E4,1.1558181E3,8.5798486E2,2.9239766E3,1.5648094E2,9.164316E3,9.8355115E2,3.2169314E3,8.901847E3,6.7310626E2,4.8271182E2,8.0654944E2,5.14354E1,1.876009E3,1.0479677E3,5.484955E1,1.0163139E2,3.2463748E3,5.9179414E3,5.493561E2,4.341951E2,2.6615344E2,2.9507778E3,5.669382E3,3.2324646E3,3.4512213E2,3.2798416E2,1.1879706E2,3.6391476E2,7.4111475E2,6.543469E1,2.877373E1,2.266167E1,4.2619943E2,1.4498096E3,4.5352286E2,5.9444476E2,4.930463E1,5.544921E0,4.350137E1,5.8130028E1,3.1257546E3,1.2062009E2,1.8117582E1,5.8998237E3,3.5427255E2,1.9508353E2,1.0961152E1,4.2323395E2,2.3796954E2,2.8183891E1,1.7912457E2,2.7716533E3,1.7954658E3,3.873916E3,1.1018319E3,2.1306326E3,1.4424915E2,2.0087297E2,3.1257043E2,1.5413734E1,2.7791277E1,9.100578E1,2.3530993E1,3.403838E2,7.1495023E0,7.339653E2,1.0878097E1,5.45566E1,4.714372E0,2.4059357E1,1.1920237E1,1.0741433E1,3.9249844E2,3.3700985E1,3.8135635E2,1.0684532E3,2.6152594E2,1.9199692E2,4.319801E0,5.90125E2,3.2766888E1,1.6537743E1,4.353946E0,1.1909745E0,1.9698368E1,2.3803001E1,2.6748245E0,5.5455204E1,2.2963723E3,8.293824E2,1.1497363E2,5.6464534E0,6.781454E0,1.1336127E1,5.5442188E3,3.5560513E2,3.4056416E1,3.2021613E2,9.430059E1,1.00782936E2,1.382051E0,9.579102E0,1.5407434E2,2.691596E2,2.3558522E2,2.38431E0,2.4129122E1,4.0547686E0,1.5357225E2,2.5552322E1,2.5444783E3,2.271749E2,3.8898016E2,1.4064857E3,7.324332E1,3.8006729E3,1.5211577E2,9.497161E2,9.47007E2,1.1836256E3],"tree_param":{"num_deleted":"0","num_feature":"22","num_nodes":"127","size_leaf_vector":"1"}},{"base_weights":[1.0900884E-2,-1.5633206E-1,1.527402E-1,-4.0345237E-1,-7.6137714E-2,-3.6671928E-1,1.5939274E-1,-6.6133565E-1,-2.6561177E-1,-5.184885E-1,-2.8495835E-2,-7.618259E-1,-4.7982268E-2,1.1060963E-1,2.2714332E-1,-5.719852E-1,-1.3855922E0,-1.2316594E0,-2.1683769E-1,-9.627525E-1,-3.6117738E-1,-2.8471172E-1,2.0897055E-2,-4.5173404E-1,-1.7829077E0,-6.4180386E-1,4.8832658E-1,-1.7675813E-1,1.3069667E-1,2.7336067E-1,3.9740194E-2,-1.0081232E0,-4.1957262E-1,-1.8682338E0,-9.1673845E-1,-1.4883761E0,8.266302E-1,-6.1049727E-3,-3.9614874E-1,-1.0691766E0,5.8892083E-1,-1.3501182E0,-3.0324882E-1,-9.5468765E-1,-1.7171547E-1,7.303966E-2,-1.5410481E-1,-8.170106E-2,-1.2606041E0,5.928384E-1,-5.0427135E-2,-1.1455057E0,1.6786706E-1,7.8347695E-1,-1.474066E0,-1.1138738E-1,-1.5160046E0,1.6176686E-1,-6.352177E-2,3.3551246E-1,1.3870716E-1,-5.0533694E-1,1.3841602E-1,-4.1318487E-2,-1.2004958E-2,5.2888854E-3,-1.3365956E-2,-4.3965653E-2,1.702532E-2,-1.2628072E-2,-4.793263E-2,-1.6256144E-3,-3.6918342E-2,3.2141455E-2,-3.3683226E-2,4.799899E-4,-4.9090613E-2,-3.4072377E-2,-6.1441613E-3,2.5120307E-2,-2.4059614E-2,-4.0121462E-2,3.0034687E-2,2.2506933E-3,-4.215079E-2,-4.784149E-2,-5.880962E-3,-3.692532E-2,-6.0159545E-3,-2.7136385E-2,-1.7807907E-3,-3.1950682E-2,1.7260439E-3,3.8130244E-3,-6.3822335E-3,-1.6641418E-2,1.4685922E-2,2.7197078E-3,-4.1411694E-2,2.909006E-3,2.0184979E-2,-6.4561306E-3,-4.2881396E-2,1.87444E-2,-1.901579E-2,1.9751139E-2,-3.5861254E-2,-4.640447E-2,2.0330368E-2,4.690684E-3,-7.0855506E-3,-4.3912623E-2,-6.6134916E-3,4.535801E-3,1.4302096E-3,-3.4817167E-2,-6.90353E-4,8.304191E-3,-5.07792E-4,1.0017604E-3,7.2705406E-3,2.314351E-3,-1.723321E-2,3.9771125E-3,-2.3458878E-2],"categories":[],"categories_nodes":[],"categories_segments":[],"categories_sizes":[],"default_left":[0,0,0,0,0,0,0,0,0,0,0,0,0,0,0,0,0,0,0,0,0,0,0,0,0,0,0,0,0,0,0,0,0,0,0,0,0,0,0,0,0,0,0,0,0,0,0,0,0,0,0,0,0,0,0,0,0,0,0,0,0,0,0,0,0,0,0,0,0,0,0,0,0,0,0,0,0,0,0,0,0,0,0,0,0,0,0,0,0,0,0,0,0,0,0,0,0,0,0,0,0,0,0,0,0,0,0,0,0,0,0,0,0,0,0,0,0,0,0,0,0,0,0,0,0],"id":8,"left_children":[1,3,5,7,9,11,13,15,17,19,21,23,25,27,29,31,33,35,37,39,41,43,45,47,49,51,53,55,57,59,61,63,65,67,69,71,73,75,77,79,81,83,85,87,89,91,93,95,97,99,-1,101,103,105,107,109,111,113,115,117,119,121,123,-1,-1,-1,-1,-1,-1,-1,-1,-1,-1,-1,-1,-1,-1,-1,-1,-1,-1,-1,-1,-1,-1,-1,-1,-1,-1,-1,-1,-1,-1,-1,-1,-1,-1,-1,-1,-1,-1,-1,-1,-1,-1,-1,-1,-1,-1,-1,-1,-1,-1,-1,-1,-1,-1,-1,-1,-1,-1,-1,-1,-1,-1],"loss_changes":[6.466922E2,2.4792203E2,5.103604E1,1.0878323E2,1.9908568E2,2.3492336E1,4.8116028E1,6.8257385E1,9.393144E1,6.3845444E1,1.0795481E2,2.5587364E1,3.3586708E1,4.8916412E1,5.279309E1,6.282901E1,2.4644852E1,5.1888504E1,7.195588E1,4.0194656E1,3.8542236E1,1.0420973E2,6.527617E1,1.9435116E1,2.6887295E1,2.0589083E1,3.328049E1,4.8316154E1,4.77872E1,4.0880188E1,6.500341E1,9.989188E1,9.523117E1,2.814148E1,2.5085762E1,2.753328E1,2.0375248E1,5.6794273E1,1.3452432E2,2.636908E1,3.439256E1,3.3357506E1,3.6148106E1,1.01830734E2,1.1436105E2,6.2341156E1,7.774887E1,2.4808544E1,1.9094215E1,5.775553E-1,0E0,2.1616955E1,1.5626276E1,1.7726133E1,1.4622126E1,3.811597E1,1.57177925E1,3.1972534E1,5.3349144E1,6.09534E1,2.8389957E1,3.372497E1,5.877225E1,0E0,0E0,0E0,0E0,0E0,0E0,0E0,0E0,0E0,0E0,0E0,0E0,0E0,0E0,0E0,0E0,0E0,0E0,0E0,0E0,0E0,0E0,0E0,0E0,0E0,0E0,0E0,0E0,0E0,0E0,0E0,0E0,0E0,0E0,0E0,0E0,0E0,0E0,0E0,0E0,0E0,0E0,0E0,0E0,0E0,0E0,0E0,0E0,0E0,0E0,0E0,0E0,0E0,0E0,0E0,0E0,0E0,0E0,0E0,0E0,0E0,0E0],"parents":[2147483647,0,0,1,1,2,2,3,3,4,4,5,5,6,6,7,7,8,8,9,9,10,10,11,11,12,12,13,13,14,14,15,15,16,16,17,17,18,18,19,19,20,20,21,21,22,22,23,23,24,24,25,25,26,26,27,27,28,28,29,29,30,30,31,31,32,32,33,33,34,34,35,35,36,36,37,37,38,38,39,39,40,40,41,41,42,42,43,43,44,44,45,45,46,46,47,47,48,48,49,49,51,51,52,52,53,53,54,54,55,55,56,56,57,57,58,58,59,59,60,60,61,61,62,62],"right_children":[2,4,6,8,10,12,14,16,18,20,22,24,26,28,30,32,34,36,38,40,42,44,46,48,50,52,54,56,58,60,62,64,66,68,70,72,74,76,78,80,82,84,86,88,90,92,94,96,98,100,-1,102,104,106,108,110,112,114,116,118,120,122,124,-1,-1,-1,-1,-1,-1,-1,-1,-1,-1,-1,-1,-1,-1,-1,-1,-1,-1,-1,-1,-1,-1,-1,-1,-1,-1,-1,-1,-1,-1,-1,-1,-1,-1,-1,-1,-1,-1,-1,-1,-1,-1,-1,-1,-1,-1,-1,-1,-1,-1,-1,-1,-1,-1,-1,-1,-1,-1,-1,-1,-1,-1],"split_conditions":[2.921471E-3,1.642326E-3,2.3612586E-1,1.6921644E1,-1.2248523E2,-3.1580005E-3,4.3460913E-3,4.14046E1,2E0,8.070469E-1,4E0,1.2481433E-3,1.9038329E0,-2.7143997E2,2.3421857E2,2.8874058E-1,1.4458646E-3,7.911556E1,1.1E1,5.090169E1,3.6027217E-1,1.3613822E1,1.7E1,1.9468467E0,1.6554857E1,2.4724347E2,3.5292222E0,1.3147728E2,4.0334635E-3,2.9038188E0,2.56933E1,1.1971157E1,1.0676628E-3,7.060607E-1,1.1009617E0,-2.0742419E-3,1.1379505E-3,4.0116486E1,9.084941E-4,-3.5288477E2,-3.3992953E2,2.3756273E1,-1.2703169E2,2.386016E-3,-5.423722E1,-1.1542452E2,6.317931E-1,1.6053057E0,3.7915339E-3,1.6266771E1,-5.0427135E-2,4.4923164E-2,-1.8810846E-5,5.7251465E2,5.4524193E0,-1.5649892E-3,3.9898567E-3,1.9377491E1,-1.4197037E2,9.7542366E1,8.004853E-3,5.0723404E-3,2.3E1,-4.1318487E-2,-1.2004958E-2,5.2888854E-3,-1.3365956E-2,-4.3965653E-2,1.702532E-2,-1.2628072E-2,-4.793263E-2,-1.6256144E-3,-3.6918342E-2,3.2141455E-2,-3.3683226E-2,4.799899E-4,-4.9090613E-2,-3.4072377E-2,-6.1441613E-3,2.5120307E-2,-2.4059614E-2,-4.0121462E-2,3.0034687E-2,2.2506933E-3,-4.215079E-2,-4.784149E-2,-5.880962E-3,-3.692532E-2,-6.0159545E-3,-2.7136385E-2,-1.7807907E-3,-3.1950682E-2,1.7260439E-3,3.8130244E-3,-6.3822335E-3,-1.6641418E-2,1.4685922E-2,2.7197078E-3,-4.1411694E-2,2.909006E-3,2.0184979E-2,-6.4561306E-3,-4.2881396E-2,1.87444E-2,-1.901579E-2,1.9751139E-2,-3.5861254E-2,-4.640447E-2,2.0330368E-2,4.690684E-3,-7.0855506E-3,-4.3912623E-2,-6.6134916E-3,4.535801E-3,1.4302096E-3,-3.4817167E-2,-6.90353E-4,8.304191E-3,-5.07792E-4,1.0017604E-3,7.2705406E-3,2.314351E-3,-1.723321E-2,3.9771125E-3,-2.3458878E-2],"split_indices":[0,0,19,21,18,14,0,18,3,1,3,13,1,18,18,1,0,18,3,21,19,21,3,1,21,18,1,17,0,1,21,21,0,1,19,13,0,21,0,18,18,21,17,0,17,17,1,1,0,17,0,14,13,18,1,13,13,17,17,17,0,0,3,0,0,0,0,0,0,0,0,0,0,0,0,0,0,0,0,0,0,0,0,0,0,0,0,0,0,0,0,0,0,0,0,0,0,0,0,0,0,0,0,0,0,0,0,0,0,0,0,0,0,0,0,0,0,0,0,0,0,0,0,0,0],"split_type":[0,0,0,0,0,0,0,0,0,0,0,0,0,0,0,0,0,0,0,0,0,0,0,0,0,0,0,0,0,0,0,0,0,0,0,0,0,0,0,0,0,0,0,0,0,0,0,0,0,0,0,0,0,0,0,0,0,0,0,0,0,0,0,0,0,0,0,0,0,0,0,0,0,0,0,0,0,0,0,0,0,0,0,0,0,0,0,0,0,0,0,0,0,0,0,0,0,0,0,0,0,0,0,0,0,0,0,0,0,0,0,0,0,0,0,0,0,0,0,0,0,0,0,0,0],"sum_hessian":[2.7261338E4,1.2510715E4,1.4750623E4,3.0642239E3,9.446491E3,1.8583345E2,1.456479E4,1.0660234E3,1.9982003E3,9.175193E2,8.528972E3,8.2355446E1,1.03478004E2,8.469235E3,6.095555E3,9.505458E2,1.154777E2,9.487134E1,1.903329E3,2.3859126E2,6.7892804E2,1.3776936E3,7.1512783E3,6.427746E1,1.8077984E1,4.9012638E1,5.4465366E1,5.528136E2,7.9164214E3,4.889298E3,1.2062572E3,2.4470189E2,7.058439E2,5.543146E1,6.004624E1,8.459701E1,1.0274337E1,8.754744E2,1.0278546E3,2.235684E2,1.5022858E1,3.6334175E1,6.425939E2,1.9774971E2,1.1799438E3,5.510101E3,1.6411771E3,4.4857536E1,1.9419924E1,3.4507515E0,1.4627233E1,2.9959715E1,1.9052925E1,4.7866795E1,6.598572E0,5.2811847E2,2.469513E1,6.8247896E3,1.0916321E3,3.34422E3,1.5450776E3,1.8426596E2,1.0219913E3,7.9640434E1,1.6506145E2,1.6435678E2,5.414871E2,5.2195953E1,3.2355058E0,4.9158554E1,1.0887687E1,1.1974516E1,7.262249E1,8.324966E0,1.9493701E0,8.6565704E2,9.817343E0,8.62009E1,9.416537E2,4.385699E0,2.1918271E2,3.3958805E0,1.1626978E1,1.0983757E1,2.5350418E1,8.659163E0,6.339347E2,9.2104744E1,1.05644966E2,8.793941E1,1.0920045E3,2.452968E1,5.485572E3,4.9395474E2,1.1472224E3,2.3537615E1,2.131992E1,6.559115E0,1.2860809E1,2.0848572E0,1.3658942E0,1.5691429E1,1.4268285E1,1.1518789E1,7.534136E0,4.595779E1,1.909006E0,5.2280703E0,1.3705016E0,2.1036069E2,3.1775775E2,1.6720562E1,7.9745684E0,4.4993574E3,2.3254321E3,2.0602816E1,1.0710292E3,2.9302346E3,4.1398544E2,1.057798E3,4.8727966E2,6.024002E1,1.2402595E2,9.855163E2,3.647498E1],"tree_param":{"num_deleted":"0","num_feature":"22","num_nodes":"125","size_leaf_vector":"1"}},{"base_weights":[1.9956498E-4,-1.7135121E-1,1.4494504E-1,-3.8605252E-1,-2.8012747E-2,1.9149451E-1,6.917823E-2,-8.5677254E-1,-2.6699796E-1,-2.1344827E-1,2.980881E-2,1.410449E-1,3.0103114E-1,-1.196408E0,7.459613E-2,-7.854412E-1,-1.8933116E0,-4.321299E-1,-1.3017464E-1,-4.7999048E-1,-5.9730705E-2,5.5675004E-2,-5.4600424E-1,2.1384E-1,-1.7726472E-2,3.802712E-1,-3.6026407E-2,7.676328E-2,-1.950086E0,1.06145896E-1,-1.3949913E-1,-5.5496055E-1,-1.114046E0,-4.9222346E-2,-1.0714233E0,-6.4644873E-1,-2.7468017E-1,-9.097382E-4,-4.8137277E-1,-3.6438283E-1,-2.2519732E0,-1.2593095E0,-2.9758018E-2,-1.6184871E-1,1.1056975E-1,-9.8261845E-1,-3.0037038E-2,1.8943033E-1,7.173249E-1,1.7625833E-1,-1.3389902E-1,2.8187278E-1,4.8157573E-1,-1.3007965E0,1.1756034E-2,1.0154184E0,-9.449384E-1,8.478002E-3,-4.9682125E-2,1.2124284E-1,-3.7289965E-1,-4.74749E-1,-4.7652166E-2,-7.6689554E-4,-1.4952318E-2,-4.1742E-2,-1.8410157E-2,-6.3646864E-3,-4.669166E-2,-1.0925401E-2,-2.8818374E-2,-6.4470065E-3,3.1568922E-2,1.3595992E-3,-9.6974615E-3,-3.02929E-2,-7.3347306E-3,-1.8671528E-2,-2.5253834E-3,2.1044198E-2,-5.1501658E-2,-4.2083297E-2,9.886167E-3,-9.531957E-3,1.0183823E-3,-1.7110582E-2,-1.3185219E-3,3.7051488E-3,-2.5416187E-3,-2.4997847E-2,5.6067216E-3,2.3302648E-3,-4.6153728E-2,-4.7190517E-2,4.168351E-3,-4.0139146E-2,1.6370302E-2,6.261185E-3,-6.1671915E-3,-4.2953207E-3,7.7598128E-3,-2.4262799E-2,6.535674E-3,-6.7203753E-3,1.0863722E-2,-1.7301132E-3,-4.182943E-2,-1.4740177E-3,9.626818E-3,2.6442567E-2,8.103999E-3,-3.9990466E-2,2.0397026E-2,1.6523129E-3,6.262196E-3,-4.5900352E-2,-1.526903E-3,-2.9238628E-2,-4.1762833E-3,1.89055E-3,-6.720258E-3],"categories":[],"categories_nodes":[],"categories_segments":[],"categories_sizes":[],"default_left":[0,0,0,0,0,0,0,0,0,0,0,0,0,0,0,0,0,0,0,0,0,0,0,0,0,0,0,0,0,0,0,0,0,0,0,0,0,0,0,0,0,0,0,0,0,0,0,0,0,0,0,0,0,0,0,0,0,0,0,0,0,0,0,0,0,0,0,0,0,0,0,0,0,0,0,0,0,0,0,0,0,0,0,0,0,0,0,0,0,0,0,0,0,0,0,0,0,0,0,0,0,0,0,0,0,0,0,0,0,0,0,0,0,0,0,0,0,0,0,0,0],"id":9,"left_children":[1,3,5,7,9,11,13,15,17,19,21,23,25,27,29,31,33,35,37,39,41,43,45,47,49,51,53,55,57,59,61,63,65,-1,67,69,71,73,75,77,79,81,83,85,87,89,91,93,95,97,99,101,103,105,107,109,111,-1,-1,113,115,117,119,-1,-1,-1,-1,-1,-1,-1,-1,-1,-1,-1,-1,-1,-1,-1,-1,-1,-1,-1,-1,-1,-1,-1,-1,-1,-1,-1,-1,-1,-1,-1,-1,-1,-1,-1,-1,-1,-1,-1,-1,-1,-1,-1,-1,-1,-1,-1,-1,-1,-1,-1,-1,-1,-1,-1,-1,-1,-1],"loss_changes":[6.751327E2,3.829019E2,5.19964E1,2.789201E2,8.001765E1,5.0432373E1,3.858071E1,7.2824646E1,8.9801056E1,7.26509E1,8.476817E1,7.230399E1,7.6917725E1,2.316742E1,3.777748E1,7.0730286E1,1.8383118E1,6.0618896E1,9.880237E1,1.3206543E2,4.045423E1,6.504422E1,5.509118E1,5.257715E1,4.436065E1,2.3104065E1,3.319283E1,1.0436506E1,1.3685535E1,3.528839E1,2.2100292E1,4.051741E1,8.0955444E1,0E0,1.8718369E1,7.247308E1,4.610212E1,4.599282E1,7.568054E1,7.583952E1,2.066829E1,3.381589E1,3.510105E1,6.991159E1,6.147217E1,2.9969772E1,3.3392998E1,4.381015E1,2.3975288E1,3.9338577E1,4.0205414E1,3.73011E1,2.1764618E1,1.5575413E1,1.8589842E1,3.0767918E-1,1.086132E1,0E0,0E0,3.5639496E1,7.9172066E1,3.807183E1,2.0324331E1,0E0,0E0,0E0,0E0,0E0,0E0,0E0,0E0,0E0,0E0,0E0,0E0,0E0,0E0,0E0,0E0,0E0,0E0,0E0,0E0,0E0,0E0,0E0,0E0,0E0,0E0,0E0,0E0,0E0,0E0,0E0,0E0,0E0,0E0,0E0,0E0,0E0,0E0,0E0,0E0,0E0,0E0,0E0,0E0,0E0,0E0,0E0,0E0,0E0,0E0,0E0,0E0,0E0,0E0,0E0,0E0,0E0,0E0],"parents":[2147483647,0,0,1,1,2,2,3,3,4,4,5,5,6,6,7,7,8,8,9,9,10,10,11,11,12,12,13,13,14,14,15,15,16,16,17,17,18,18,19,19,20,20,21,21,22,22,23,23,24,24,25,25,26,26,27,27,28,28,29,29,30,30,31,31,32,32,34,34,35,35,36,36,37,37,38,38,39,39,40,40,41,41,42,42,43,43,44,44,45,45,46,46,47,47,48,48,49,49,50,50,51,51,52,52,53,53,54,54,55,55,56,56,59,59,60,60,61,61,62,62],"right_children":[2,4,6,8,10,12,14,16,18,20,22,24,26,28,30,32,34,36,38,40,42,44,46,48,50,52,54,56,58,60,62,64,66,-1,68,70,72,74,76,78,80,82,84,86,88,90,92,94,96,98,100,102,104,106,108,110,112,-1,-1,114,116,118,120,-1,-1,-1,-1,-1,-1,-1,-1,-1,-1,-1,-1,-1,-1,-1,-1,-1,-1,-1,-1,-1,-1,-1,-1,-1,-1,-1,-1,-1,-1,-1,-1,-1,-1,-1,-1,-1,-1,-1,-1,-1,-1,-1,-1,-1,-1,-1,-1,-1,-1,-1,-1,-1,-1,-1,-1,-1,-1],"split_conditions":[2.921471E-3,1E0,2.989483E1,1.5257411E-3,1.6232653E-3,4.5991945E-3,6.2041855E-1,5.050665E1,7.895754E-1,-1.8336166E-1,2.8337488E2,1.7E1,1.9967842E2,3.4794655E1,8.7665355E-1,1.2E1,5.824891E-1,-3.0854063E1,1.4E1,2.1E1,9.966066E0,5E0,2.6392306E-3,2.5276227E2,3.6496228E-1,-3.5260365E1,1.4962993E1,-1.1680395E2,-3.2153341E-3,6.8690454E2,1.4102657E-3,8.62897E-4,9.526219E-4,-4.9222346E-2,7.9901764E1,2.514722E-3,3.945497E1,1.4648359E0,1.8096373E1,1.7454792E1,8.519522E0,3.6121346E1,6E0,1.3483487E1,1.8E1,4.883912E2,5.287694E1,-3.5402264E2,1.0097244E0,1.6916872E0,2.7878704E1,2.51548E-1,-1.1714647E-2,5.173199E-3,1.2633289E-2,5.824891E-1,1.9967842E2,8.478002E-3,-4.9682125E-2,3.189476E2,3.9558175E0,4.3837768E-1,7.950894E-1,-7.6689554E-4,-1.4952318E-2,-4.1742E-2,-1.8410157E-2,-6.3646864E-3,-4.669166E-2,-1.0925401E-2,-2.8818374E-2,-6.4470065E-3,3.1568922E-2,1.3595992E-3,-9.6974615E-3,-3.02929E-2,-7.3347306E-3,-1.8671528E-2,-2.5253834E-3,2.1044198E-2,-5.1501658E-2,-4.2083297E-2,9.886167E-3,-9.531957E-3,1.0183823E-3,-1.7110582E-2,-1.3185219E-3,3.7051488E-3,-2.5416187E-3,-2.4997847E-2,5.6067216E-3,2.3302648E-3,-4.6153728E-2,-4.7190517E-2,4.168351E-3,-4.0139146E-2,1.6370302E-2,6.261185E-3,-6.1671915E-3,-4.2953207E-3,7.7598128E-3,-2.4262799E-2,6.535674E-3,-6.7203753E-3,1.0863722E-2,-1.7301132E-3,-4.182943E-2,-1.4740177E-3,9.626818E-3,2.6442567E-2,8.103999E-3,-3.9990466E-2,2.0397026E-2,1.6523129E-3,6.262196E-3,-4.5900352E-2,-1.526903E-3,-2.9238628E-2,-4.1762833E-3,1.89055E-3,-6.720258E-3],"split_indices":[0,7,21,0,0,0,1,16,1,15,16,3,16,21,20,3,1,16,3,3,21,3,0,16,20,16,21,16,11,16,11,0,0,0,16,0,21,1,21,21,21,16,3,21,3,16,21,16,1,1,21,19,12,0,12,1,16,0,0,16,1,19,15,0,0,0,0,0,0,0,0,0,0,0,0,0,0,0,0,0,0,0,0,0,0,0,0,0,0,0,0,0,0,0,0,0,0,0,0,0,0,0,0,0,0,0,0,0,0,0,0,0,0,0,0,0,0,0,0,0,0],"split_type":[0,0,0,0,0,0,0,0,0,0,0,0,0,0,0,0,0,0,0,0,0,0,0,0,0,0,0,0,0,0,0,0,0,0,0,0,0,0,0,0,0,0,0,0,0,0,0,0,0,0,0,0,0,0,0,0,0,0,0,0,0,0,0,0,0,0,0,0,0,0,0,0,0,0,0,0,0,0,0,0,0,0,0,0,0,0,0,0,0,0,0,0,0,0,0,0,0,0,0,0,0,0,0,0,0,0,0,0,0,0,0,0,0,0,0,0,0,0,0,0,0],"sum_hessian":[2.7186885E4,1.2441349E4,1.4745536E4,4.9801206E3,7.4612285E3,9.132934E3,5.612602E3,1.0040587E3,3.9760618E3,1.7728741E3,5.688354E3,6.254546E3,2.878388E3,2.2987757E1,5.5896143E3,9.4105597E2,6.3002743E1,1.8006731E3,2.1753887E3,6.476842E2,1.12519E3,5.4446763E3,2.436779E2,4.288133E3,1.9664132E3,2.3303982E3,5.4798975E2,8.881904E0,1.4105852E1,4.8721436E3,7.1747046E2,5.546899E2,3.863661E2,4.1308857E1,2.1693884E1,7.612974E2,1.0393756E3,1.5908499E3,5.8453876E2,6.091478E2,3.8536373E1,2.6428848E1,1.0987611E3,1.0967582E3,4.347918E3,1.3149864E2,1.1217927E2,4.0911636E3,1.9696925E2,7.3634607E2,1.2300671E3,1.1840741E3,1.1463241E3,1.8994495E1,5.2899524E2,4.6322894E0,4.2496147E0,1.8684978E0,1.2237354E1,4.724015E3,1.481287E2,1.5339516E2,5.640753E2,1.18383514E2,4.3630634E2,9.021901E1,2.961471E2,1.3470202E1,8.223681E0,6.362383E2,1.25059166E2,1.0253901E3,1.3985496E1,1.3931738E3,1.9767603E2,7.557137E1,5.089674E2,1.9946004E2,4.096878E2,1.3907766E0,3.7145596E1,1.8697966E1,7.7308836E0,1.719442E2,9.2681696E2,1.491504E2,9.476077E2,3.423859E3,9.240592E2,1.14920456E2,1.6578184E1,1.06184E2,5.995271E0,6.6982827E0,4.0844653E3,2.6101675E0,1.9435909E2,5.902063E2,1.4613976E2,1.0860591E3,1.4400806E2,1.7505157E1,1.166569E3,3.288396E1,1.1134401E3,6.9552283E0,1.2039268E1,4.4741992E2,8.157534E1,2.7741897E0,1.8580995E0,2.8770556E0,1.3725592E0,3.747129E3,9.7688617E2,2.0778427E1,1.2735027E2,3.5985897E1,1.1740926E2,3.7355722E2,1.905181E2],"tree_param":{"num_deleted":"0","num_feature":"22","num_nodes":"121","size_leaf_vector":"1"}},{"base_weights":[1.3310632E-2,-1.5824747E-1,1.5632361E-1,-3.7699246E-1,-7.8177504E-2,1.17485866E-1,2.3031567E-1,-5.905816E-1,-2.580429E-1,-3.167544E-1,-4.7026094E-2,1.64115E-1,3.5006054E-2,3.1526315E-1,1.3800867E-1,-8.446408E-1,-4.4331434E-1,-9.053048E-1,-2.1723434E-1,-8.7386227E-1,-2.0409663E-1,5.719673E-2,-1.8756084E-1,2.0991044E-1,-1.2095006E-2,7.8246266E-2,-3.7850273E-1,7.8434646E-1,2.983513E-1,1.6248912E-1,-4.4092548E-1,-1.9927989E-1,-1.0136672E0,-1.052755E0,-3.7515962E-1,-3.047381E-1,-1.8896332E0,-3.9168212E-1,-1.1678713E-1,-1.7395065E0,-3.8919252E-1,-6.26383E-2,-5.377588E-1,-5.583718E-2,2.2911803E-1,-1.4913797E-1,-9.3657285E-1,-2.0943125E-1,2.201124E-1,-2.0913951E-1,1.520541E-1,2.583166E-2,4.31056E-1,-2.994782E-1,-1.975582E0,1.1801998E-1,1.1280911E0,-2.5613648E-1,3.115318E-1,3.0458716E-1,5.491195E-2,-1.0469081E0,-9.419003E-2,2.9711168E-2,-7.561472E-3,-4.212443E-2,-1.949991E-2,3.2269966E-2,-2.8743599E-2,-5.790845E-3,-1.4952252E-2,1.4803917E-3,-3.0597055E-2,2.2198478E-2,-4.3028615E-2,-1.1890484E-2,3.952926E-3,2.0783208E-3,-1.0110985E-2,-7.88836E-4,-4.607256E-2,-1.5524537E-3,-3.5016153E-2,-9.020326E-3,6.7950385E-3,-1.975953E-2,-2.1231722E-3,-5.9472867E-3,-6.386263E-5,5.348811E-3,-2.9586107E-2,-9.821154E-3,-1.8252032E-3,6.1344355E-4,-3.4306187E-2,-1.2078164E-4,-2.4006438E-2,1.7288389E-3,5.244129E-3,-4.7099421E-4,-1.3227852E-2,5.5948664E-3,-1.16169825E-2,-2.4280814E-3,2.4634956E-3,6.552286E-3,1.7394181E-2,-1.1213096E-2,2.683625E-3,-4.9990676E-2,1.3781484E-2,-3.4324895E-3,2.6179746E-2,-3.007946E-2,2.5843602E-2,-1.632529E-2,7.2262203E-3,-3.201379E-3,7.042152E-3,5.158602E-3,1.2560946E-2,-1.804843E-2,1.6348213E-3,1.5662877E-2,-3.4791555E-2,9.91734E-3,-1.436632E-2],"categories":[],"categories_nodes":[],"categories_segments":[],"categories_sizes":[],"default_left":[0,0,0,0,0,0,0,0,0,0,0,0,0,0,0,0,0,0,0,0,0,0,0,0,0,0,0,0,0,0,0,0,0,0,0,0,0,0,0,0,0,0,0,0,0,0,0,0,0,0,0,0,0,0,0,0,0,0,0,0,0,0,0,0,0,0,0,0,0,0,0,0,0,0,0,0,0,0,0,0,0,0,0,0,0,0,0,0,0,0,0,0,0,0,0,0,0,0,0,0,0,0,0,0,0,0,0,0,0,0,0,0,0,0,0,0,0,0,0,0,0,0,0,0,0,0,0],"id":10,"left_children":[1,3,5,7,9,11,13,15,17,19,21,23,25,27,29,31,33,35,37,39,41,43,45,47,49,51,53,55,57,59,61,63,65,67,69,71,73,75,77,79,81,83,85,87,89,91,93,95,97,99,101,103,105,107,109,111,113,115,117,119,121,123,125,-1,-1,-1,-1,-1,-1,-1,-1,-1,-1,-1,-1,-1,-1,-1,-1,-1,-1,-1,-1,-1,-1,-1,-1,-1,-1,-1,-1,-1,-1,-1,-1,-1,-1,-1,-1,-1,-1,-1,-1,-1,-1,-1,-1,-1,-1,-1,-1,-1,-1,-1,-1,-1,-1,-1,-1,-1,-1,-1,-1,-1,-1,-1,-1],"loss_changes":[6.693202E2,2.1719714E2,4.272699E1,8.4274445E1,6.747012E1,3.752571E1,4.0104645E1,4.4069885E1,5.622786E1,6.562996E1,1.1766651E2,5.0308075E1,6.3070267E1,2.091214E1,3.487305E1,4.722647E1,3.0927368E1,7.4133095E1,3.518901E1,7.3190414E1,4.119329E1,8.9657555E1,9.8307106E1,2.1214417E1,4.1655773E1,5.903083E1,4.1555637E1,2.0972038E1,1.8894882E1,3.6008312E1,2.0889948E1,2.2534153E1,3.296054E1,5.6644608E1,2.2853043E1,3.3390556E1,1.763414E1,6.829918E1,9.643558E1,4.3133026E1,4.4733665E1,8.319232E1,4.3417915E1,3.2493652E1,5.8107643E1,6.4298836E1,1.06094666E2,2.1816584E1,1.604338E1,4.4488216E1,5.276444E1,3.4260307E1,1.9464966E1,3.015744E1,1.5728405E1,1.0110256E1,1.30175705E1,1.8231857E1,1.8589096E1,1.8213951E1,2.5429432E1,3.795297E1,2.091647E1,0E0,0E0,0E0,0E0,0E0,0E0,0E0,0E0,0E0,0E0,0E0,0E0,0E0,0E0,0E0,0E0,0E0,0E0,0E0,0E0,0E0,0E0,0E0,0E0,0E0,0E0,0E0,0E0,0E0,0E0,0E0,0E0,0E0,0E0,0E0,0E0,0E0,0E0,0E0,0E0,0E0,0E0,0E0,0E0,0E0,0E0,0E0,0E0,0E0,0E0,0E0,0E0,0E0,0E0,0E0,0E0,0E0,0E0,0E0,0E0,0E0,0E0,0E0,0E0],"parents":[2147483647,0,0,1,1,2,2,3,3,4,4,5,5,6,6,7,7,8,8,9,9,10,10,11,11,12,12,13,13,14,14,15,15,16,16,17,17,18,18,19,19,20,20,21,21,22,22,23,23,24,24,25,25,26,26,27,27,28,28,29,29,30,30,31,31,32,32,33,33,34,34,35,35,36,36,37,37,38,38,39,39,40,40,41,41,42,42,43,43,44,44,45,45,46,46,47,47,48,48,49,49,50,50,51,51,52,52,53,53,54,54,55,55,56,56,57,57,58,58,59,59,60,60,61,61,62,62],"right_children":[2,4,6,8,10,12,14,16,18,20,22,24,26,28,30,32,34,36,38,40,42,44,46,48,50,52,54,56,58,60,62,64,66,68,70,72,74,76,78,80,82,84,86,88,90,92,94,96,98,100,102,104,106,108,110,112,114,116,118,120,122,124,126,-1,-1,-1,-1,-1,-1,-1,-1,-1,-1,-1,-1,-1,-1,-1,-1,-1,-1,-1,-1,-1,-1,-1,-1,-1,-1,-1,-1,-1,-1,-1,-1,-1,-1,-1,-1,-1,-1,-1,-1,-1,-1,-1,-1,-1,-1,-1,-1,-1,-1,-1,-1,-1,-1,-1,-1,-1,-1,-1,-1,-1,-1,-1,-1],"split_conditions":[2.9074254E-3,1.680012E-3,4.6337866E-3,1.7094496E1,3E0,1.6E1,2.8958128E1,3.8222092E-1,8.102358E-4,1.4100878E1,1.2E1,3.5700016E1,8.5352886E-1,1.1971157E1,2.3E1,-1.5023309E-3,9.966066E0,1.1E1,-3.8872357E-4,2.2545008E-3,4.4164884E-1,1.1205429E-3,4.1631886E1,-9.277945E-3,-8.962779E-4,4.1229794E1,4.669299E1,-7.2202496E-2,-1.6869728E-2,4.1525802E-1,9.0726346E-2,9.604142E0,-1.7043247E-3,-8.962779E-4,1.5E1,7.30374E-4,-2.2448495E-3,3.0822243E1,2.4400112E1,1.766071E-3,1.1685033E0,-2.0571079E-4,1.0697895E0,5E0,5.090169E1,4.712584E-1,1.4E1,-6.6454443E-3,2E0,2.0761797E-1,8.886047E-3,5.3320414E-1,5.403557E1,4.10746E-3,6.273074E1,1.1796999E1,1E0,2.5243206E1,1.3613822E1,2E1,2.940906E1,-1.288673E-2,3.7722527E1,2.9711168E-2,-7.561472E-3,-4.212443E-2,-1.949991E-2,3.2269966E-2,-2.8743599E-2,-5.790845E-3,-1.4952252E-2,1.4803917E-3,-3.0597055E-2,2.2198478E-2,-4.3028615E-2,-1.1890484E-2,3.952926E-3,2.0783208E-3,-1.0110985E-2,-7.88836E-4,-4.607256E-2,-1.5524537E-3,-3.5016153E-2,-9.020326E-3,6.7950385E-3,-1.975953E-2,-2.1231722E-3,-5.9472867E-3,-6.386263E-5,5.348811E-3,-2.9586107E-2,-9.821154E-3,-1.8252032E-3,6.1344355E-4,-3.4306187E-2,-1.2078164E-4,-2.4006438E-2,1.7288389E-3,5.244129E-3,-4.7099421E-4,-1.3227852E-2,5.5948664E-3,-1.16169825E-2,-2.4280814E-3,2.4634956E-3,6.552286E-3,1.7394181E-2,-1.1213096E-2,2.683625E-3,-4.9990676E-2,1.3781484E-2,-3.4324895E-3,2.6179746E-2,-3.007946E-2,2.5843602E-2,-1.632529E-2,7.2262203E-3,-3.201379E-3,7.042152E-3,5.158602E-3,1.2560946E-2,-1.804843E-2,1.6348213E-3,1.5662877E-2,-3.4791555E-2,9.91734E-3,-1.436632E-2],"split_indices":[0,0,0,21,3,3,21,20,0,21,3,21,15,21,3,9,21,3,9,0,15,9,21,9,9,21,21,15,12,20,15,21,12,9,3,0,13,21,21,0,19,9,19,3,21,19,3,13,3,15,9,19,21,0,21,21,3,21,21,3,21,12,21,0,0,0,0,0,0,0,0,0,0,0,0,0,0,0,0,0,0,0,0,0,0,0,0,0,0,0,0,0,0,0,0,0,0,0,0,0,0,0,0,0,0,0,0,0,0,0,0,0,0,0,0,0,0,0,0,0,0,0,0,0,0,0,0],"split_type":[0,0,0,0,0,0,0,0,0,0,0,0,0,0,0,0,0,0,0,0,0,0,0,0,0,0,0,0,0,0,0,0,0,0,0,0,0,0,0,0,0,0,0,0,0,0,0,0,0,0,0,0,0,0,0,0,0,0,0,0,0,0,0,0,0,0,0,0,0,0,0,0,0,0,0,0,0,0,0,0,0,0,0,0,0,0,0,0,0,0,0,0,0,0,0,0,0,0,0,0,0,0,0,0,0,0,0,0,0,0,0,0,0,0,0,0,0,0,0,0,0,0,0,0,0,0,0],"sum_hessian":[2.7278172E4,1.2401386E4,1.4876786E4,3.3220615E3,9.079324E3,9.757666E3,5.11912E3,1.1868878E3,2.1351736E3,1.0475287E3,8.031796E3,6.232944E3,3.5247224E3,2.664574E3,2.4545461E3,4.3379236E2,7.5309546E2,1.2537795E2,2.0097957E3,1.7506279E2,8.724659E2,4.6120317E3,3.419764E3,4.947056E3,1.2858877E3,3.1917725E3,3.3294977E2,9.1143776E1,2.5734302E3,2.3556558E3,9.889047E1,9.0486015E1,3.4330637E2,7.4295685E1,6.7879974E2,7.868164E1,4.669631E1,7.333242E2,1.2764714E3,6.1906197E1,1.1315659E2,6.135394E2,2.5892645E2,2.782973E3,1.829059E3,3.2540374E3,1.6572667E2,1.1703231E2,4.830024E3,5.8426373E2,7.0162396E2,2.7798604E3,4.1191226E2,3.1838348E2,1.4566307E1,3.1474962E1,5.9668816E1,5.9323772E1,2.5141064E3,1.0141886E3,1.341467E3,3.525561E1,6.3634865E1,7.246182E0,8.323984E1,3.3047874E1,3.1025848E2,7.0105543E0,6.728513E1,5.116146E2,1.6718518E2,5.9683037E1,1.8998604E1,1.4157343E0,4.5280575E1,5.7277466E2,1.6054951E2,7.96336E2,4.801354E2,1.2065819E1,4.9840378E1,9.095396E1,2.2202635E1,3.15795E2,2.9774442E2,1.379873E2,1.2093914E2,5.368334E2,2.2461394E3,1.807759E3,2.1299976E1,5.6106433E2,2.692973E3,6.763764E1,9.808902E1,9.6383514E1,2.0648796E1,7.0373224E2,4.126292E3,4.0061707E2,1.8364668E2,6.073588E2,9.426516E1,1.0842665E3,1.6955939E3,3.1010022E2,1.0181202E2,2.0885019E2,1.0953329E2,1.2947895E1,1.618412E0,2.5811993E1,5.6629686E0,1.1866705E0,5.8482147E1,3.1920954E1,2.7402819E1,8.420364E1,2.4299028E3,8.2525195E2,1.8893663E2,3.006208E1,1.311405E3,8.51592E0,2.6739693E1,3.243978E1,3.119508E1],"tree_param":{"num_deleted":"0","num_feature":"22","num_nodes":"127","size_leaf_vector":"1"}},{"base_weights":[1.0020706E-2,5.031376E-2,-2.0289399E-1,-6.9997093E-4,1.7660989E-1,-4.3297985E-1,-1.6001543E-1,-1.3068615E-1,3.7391596E-2,1.6669634E-1,6.995526E-1,1.6492638E-1,-4.933128E-1,-1.2111397E-1,-3.7234703E-1,2.0026994E-1,-2.5325015E-1,5.407478E-2,-2.8638932E-1,1.8919967E-1,-1.049588E-1,-1.1948982E0,9.436553E-1,-8.592945E-1,1.0244441E0,-3.1813517E-1,-6.8819046E-1,-1.9978872E-1,2.1306713E-1,3.916073E-1,-5.384882E-1,2.4242939E-1,-8.59533E-1,-3.4912246E-1,5.8137514E-2,3.910349E-3,1.5769574E-1,-8.903504E-2,-5.6125534E-1,1.6659538E-1,4.783378E-1,1.3142437E-2,-1.8674206E0,-1.4686714E-1,-4.7896847E-2,1.1005348E0,-4.1412625E-1,2.969569E-1,-1.3229413E0,1.3156477E0,-4.077955E-1,-7.648639E-1,-1.4995913E-1,-3.6570373E-1,-9.4644177E-1,5.910203E-3,-2.6045167E-1,-1.4571795E0,2.4895504E-1,5.057238E-1,-4.2788796E-2,-9.749505E-1,-3.0996078E-1,1.6964482E-2,3.7623998E-3,-3.9082307E-2,1.0797406E-3,-8.769164E-3,4.014474E-3,3.6339508E-3,-1.6538443E-2,-1.1008382E-3,2.8567323E-3,7.192866E-3,1.902506E-3,-2.2953426E-2,1.1598462E-3,-6.5607033E-3,-2.3248162E-2,5.1837224E-3,1.832169E-3,2.2108806E-3,1.6714232E-2,-1.41416835E-2,3.1541707E-3,3.477381E-3,-4.3440744E-2,1.22211715E-2,-3.5068825E-2,-3.4925673E-2,2.5036253E-2,1.00770565E-2,-2.6804497E-2,-3.2628648E-2,1.9585744E-2,-5.039787E-3,-4.9171362E-2,-4.3971376E-3,3.1631045E-2,-3.513325E-2,9.492301E-3,-1.1041762E-3,-3.337359E-2,-4.6412475E-2,-1.7682555E-3,1.4068579E-2,-1.1435189E-2,-2.6230609E-2,-1.0192106E-2,1.9233618E-2,-2.0474086E-3,-1.027782E-2,-1.6042333E-3,5.9540523E-3,-4.8997622E-2,1.45361E-2,2.892623E-3,-3.8419604E-2,1.2655619E-2,-6.1727837E-3,-3.7058767E-2,1.8454121E-2,-8.16562E-3],"categories":[],"categories_nodes":[],"categories_segments":[],"categories_sizes":[],"default_left":[0,0,0,0,0,0,0,0,0,0,0,0,0,0,0,0,0,0,0,0,0,0,0,0,0,0,0,0,0,0,0,0,0,0,0,0,0,0,0,0,0,0,0,0,0,0,0,0,0,0,0,0,0,0,0,0,0,0,0,0,0,0,0,0,0,0,0,0,0,0,0,0,0,0,0,0,0,0,0,0,0,0,0,0,0,0,0,0,0,0,0,0,0,0,0,0,0,0,0,0,0,0,0,0,0,0,0,0,0,0,0,0,0,0,0,0,0,0,0,0,0,0,0],"id":11,"left_children":[1,3,5,7,9,11,13,15,17,19,21,23,25,27,29,31,33,35,37,39,41,43,45,47,49,51,53,55,57,59,61,63,65,67,69,71,73,75,77,79,81,83,85,87,-1,89,91,93,95,97,99,101,103,105,107,109,111,113,115,117,-1,119,121,-1,-1,-1,-1,-1,-1,-1,-1,-1,-1,-1,-1,-1,-1,-1,-1,-1,-1,-1,-1,-1,-1,-1,-1,-1,-1,-1,-1,-1,-1,-1,-1,-1,-1,-1,-1,-1,-1,-1,-1,-1,-1,-1,-1,-1,-1,-1,-1,-1,-1,-1,-1,-1,-1,-1,-1,-1,-1,-1,-1],"loss_changes":[2.3301581E2,1.4714716E2,4.2572342E1,8.055834E1,3.3948685E1,2.4552284E1,3.0061188E1,1.496179E2,6.798312E1,3.94498E1,5.7516144E1,5.6277172E1,2.0825089E1,8.107161E1,7.178226E1,4.4756847E1,8.036229E1,6.2204475E1,3.3404877E1,3.885353E1,1.0286565E2,1.5216679E1,2.358358E1,1.6076952E1,1.4996712E1,2.4413902E1,2.3885025E1,3.1136772E1,3.5595535E1,2.8541424E1,4.5937424E1,3.523608E1,3.3536995E1,6.485307E1,5.8329865E1,5.7322746E1,4.7748756E1,5.0450928E1,3.397403E1,3.3488724E1,4.8367264E1,4.1677616E1,9.967064E0,9.630767E0,0E0,1.8898453E1,9.384465E0,1.1622087E1,2.157159E1,7.1705017E0,7.617814E0,4.99496E1,3.225518E1,2.2554665E1,2.0221039E1,5.124808E1,7.787979E1,1.8458225E1,2.8072315E1,1.957971E1,0E0,8.13112E1,2.5270582E1,0E0,0E0,0E0,0E0,0E0,0E0,0E0,0E0,0E0,0E0,0E0,0E0,0E0,0E0,0E0,0E0,0E0,0E0,0E0,0E0,0E0,0E0,0E0,0E0,0E0,0E0,0E0,0E0,0E0,0E0,0E0,0E0,0E0,0E0,0E0,0E0,0E0,0E0,0E0,0E0,0E0,0E0,0E0,0E0,0E0,0E0,0E0,0E0,0E0,0E0,0E0,0E0,0E0,0E0,0E0,0E0,0E0,0E0,0E0,0E0],"parents":[2147483647,0,0,1,1,2,2,3,3,4,4,5,5,6,6,7,7,8,8,9,9,10,10,11,11,12,12,13,13,14,14,15,15,16,16,17,17,18,18,19,19,20,20,21,21,22,22,23,23,24,24,25,25,26,26,27,27,28,28,29,29,30,30,31,31,32,32,33,33,34,34,35,35,36,36,37,37,38,38,39,39,40,40,41,41,42,42,43,43,45,45,46,46,47,47,48,48,49,49,50,50,51,51,52,52,53,53,54,54,55,55,56,56,57,57,58,58,59,59,61,61,62,62],"right_children":[2,4,6,8,10,12,14,16,18,20,22,24,26,28,30,32,34,36,38,40,42,44,46,48,50,52,54,56,58,60,62,64,66,68,70,72,74,76,78,80,82,84,86,88,-1,90,92,94,96,98,100,102,104,106,108,110,112,114,116,118,-1,120,122,-1,-1,-1,-1,-1,-1,-1,-1,-1,-1,-1,-1,-1,-1,-1,-1,-1,-1,-1,-1,-1,-1,-1,-1,-1,-1,-1,-1,-1,-1,-1,-1,-1,-1,-1,-1,-1,-1,-1,-1,-1,-1,-1,-1,-1,-1,-1,-1,-1,-1,-1,-1,-1,-1,-1,-1,-1,-1,-1,-1],"split_conditions":[4.864317E-1,2.121404E-3,-7.337411E-1,1.6639242E1,4.7926688E-1,4.9153182E-1,2.5603E-1,4.372761E-2,8.774551E-1,4.3988243E-1,1.736331E1,3.048933E-2,2.4288422E1,2.4640223E-3,6.690326E0,7.6228424E1,4.3143976E-1,2.1636377E-1,1.3E1,4.0046287E-1,4.5102238E1,3.0258799E-3,9.0667045E-1,3E0,1.8174854E-3,-9.3577063E-1,-9.287637E-1,5.099006E-1,4.8989773E-1,6.1192993E2,5.2772393E-3,-3.9745663E1,1.4265994E2,2.5645979E1,2E1,2.0449354E1,3.2570812E-1,-1.211243E-1,-1.5394135E2,3.801125E1,1.9967842E2,1.736331E1,-2.6063458E2,7.208714E-1,-4.7896847E-2,4E0,1.1E1,-9.287637E-1,-5.3355396E-3,2.56933E1,-8.2093424E-1,-3.149078E-3,-3.366567E-1,-1.2528132E-2,1E0,1.313516E1,5.564585E-1,2.790241E-3,-1.356672E-1,2.1013357E1,-4.2788796E-2,1.08913185E2,-3.1372622E1,1.6964482E-2,3.7623998E-3,-3.9082307E-2,1.0797406E-3,-8.769164E-3,4.014474E-3,3.6339508E-3,-1.6538443E-2,-1.1008382E-3,2.8567323E-3,7.192866E-3,1.902506E-3,-2.2953426E-2,1.1598462E-3,-6.5607033E-3,-2.3248162E-2,5.1837224E-3,1.832169E-3,2.2108806E-3,1.6714232E-2,-1.41416835E-2,3.1541707E-3,3.477381E-3,-4.3440744E-2,1.22211715E-2,-3.5068825E-2,-3.4925673E-2,2.5036253E-2,1.00770565E-2,-2.6804497E-2,-3.2628648E-2,1.9585744E-2,-5.039787E-3,-4.9171362E-2,-4.3971376E-3,3.1631045E-2,-3.513325E-2,9.492301E-3,-1.1041762E-3,-3.337359E-2,-4.6412475E-2,-1.7682555E-3,1.4068579E-2,-1.1435189E-2,-2.6230609E-2,-1.0192106E-2,1.9233618E-2,-2.0474086E-3,-1.027782E-2,-1.6042333E-3,5.9540523E-3,-4.8997622E-2,1.45361E-2,2.892623E-3,-3.8419604E-2,1.2655619E-2,-6.1727837E-3,-3.7058767E-2,1.8454121E-2,-8.16562E-3],"split_indices":[10,9,15,21,10,10,14,10,15,10,21,14,21,9,17,16,10,10,3,10,21,9,15,3,9,15,15,10,10,16,9,17,18,17,3,16,10,14,18,17,16,21,16,15,0,3,3,15,9,21,15,9,14,9,4,21,10,9,15,21,0,18,18,0,0,0,0,0,0,0,0,0,0,0,0,0,0,0,0,0,0,0,0,0,0,0,0,0,0,0,0,0,0,0,0,0,0,0,0,0,0,0,0,0,0,0,0,0,0,0,0,0,0,0,0,0,0,0,0,0,0,0,0],"split_type":[0,0,0,0,0,0,0,0,0,0,0,0,0,0,0,0,0,0,0,0,0,0,0,0,0,0,0,0,0,0,0,0,0,0,0,0,0,0,0,0,0,0,0,0,0,0,0,0,0,0,0,0,0,0,0,0,0,0,0,0,0,0,0,0,0,0,0,0,0,0,0,0,0,0,0,0,0,0,0,0,0,0,0,0,0,0,0,0,0,0,0,0,0,0,0,0,0,0,0,0,0,0,0,0,0,0,0,0,0,0,0,0,0,0,0,0,0,0,0,0,0,0,0],"sum_hessian":[2.7159049E4,2.283786E4,4.3211885E3,1.6267899E4,6.569961E3,6.773637E2,3.6438247E3,3.6862534E3,1.25816455E4,6.449024E3,1.2093689E2,6.1926975E1,6.154367E2,3.0809343E3,5.6289044E2,9.9604034E2,2.6902131E3,1.1965921E4,6.1572485E2,5.955949E3,4.930747E2,1.3359604E1,1.07577286E2,2.825634E1,3.3670635E1,3.2548615E2,2.899506E2,2.49415E3,5.8678436E2,1.00305626E2,4.625848E2,9.5867505E2,3.7365288E1,2.0568225E3,6.3339056E2,8.063365E3,3.9025557E3,3.591666E2,2.565583E2,5.525548E3,4.3040112E2,4.6303934E2,3.0035376E1,7.198043E0,6.161561E0,9.660492E1,1.0972366E1,8.190424E0,2.0065916E1,2.8049088E1,5.621547E0,8.8049866E1,2.3743626E2,1.30014E2,1.5993658E2,5.682392E2,1.9259108E3,1.150974E1,5.752746E2,9.647115E1,3.8344736E0,1.5784738E2,3.0473743E2,1.0410502E2,8.5457E2,1.7711529E1,1.965376E1,1.8538225E3,2.0300002E2,5.592375E2,7.4153076E1,5.6495874E3,2.4137778E3,1.0965442E3,2.8060115E3,4.4964222E1,3.1420236E2,1.7296605E2,8.3592224E1,2.8835107E3,2.6420374E3,1.9141139E2,2.3898975E2,7.622621E1,3.868131E2,2.1029472E0,2.7932428E1,5.27359E0,1.9244528E0,1.6553372E0,9.494958E1,5.5376644E0,5.4347014E0,1.6986828E0,6.4917407E0,1.0008632E1,1.0057283E1,2.5746808E0,2.5474407E1,1.9221181E0,3.6994293E0,4.6751106E1,4.1298763E1,6.7358937E0,2.3070038E2,1.7800766E1,1.1221324E2,1.00277725E2,5.9658855E1,5.72606E1,5.1097858E2,8.864444E2,1.0394664E3,3.9138262E0,7.595914E0,1.20500755E2,4.5477383E2,2.649588E0,9.382156E1,8.298883E1,7.485855E1,1.6551609E1,2.8818582E2],"tree_param":{"num_deleted":"0","num_feature":"22","num_nodes":"123","size_leaf_vector":"1"}},{"base_weights":[4.4965823E-3,-3.7046275E-1,6.0950544E-2,-1.4963381E0,-2.863697E-1,-6.4620994E-2,1.3647303E-1,6.9350487E-1,-1.7850307E0,-1.6709891E-1,-7.5237334E-1,-2.1623732E-1,3.7846982E-2,1.470114E-1,-3.3181974E-1,-3.605168E-2,1.0210551E0,-2.1308925E0,-1.3098334E0,-2.8872436E-1,2.1268897E-1,-1.0945632E0,-2.976998E-1,-8.9159614E-1,-1.8948671E-1,9.666083E-2,-4.1985792E-1,4.523584E-1,1.363674E-1,-5.6103338E-2,-9.097721E-1,1.2186009E0,-3.0271329E-2,1.3254792E-3,-4.67428E-2,-3.263084E-1,-1.6258233E0,-6.397604E-2,-4.8413318E-1,-1.5913371E0,3.3527607E-1,-2.1407183E-1,-1.4292501E0,6.423434E-1,-9.6071035E-1,-1.3337529E0,-1.4148933E-1,3.6723904E-2,-2.9606202E-1,-1.5676103E0,1.0486339E-1,-1.0630829E0,-2.7497953E-1,1.0073032E0,3.3871752E-1,-7.921133E-2,1.5085906E-1,-1.7947538E0,4.1090026E-2,-4.5697004E-1,-1.4118234E0,3.2053128E-2,1.0758786E-2,-2.3071183E-2,2.3068113E-2,-1.4033459E-2,-4.334522E-2,2.3470921E-3,-1.2881489E-2,-3.029129E-2,-8.617514E-3,1.6264873E-2,-4.189393E-2,2.9470043E-2,5.148752E-3,-4.7200352E-2,6.703089E-3,-4.9468458E-2,-2.625984E-2,-3.246212E-2,1.8051589E-2,1.5461001E-2,-2.8640244E-2,-3.4796912E-2,-1.2387907E-2,8.957617E-3,-4.922776E-2,1.9205925E-3,-3.1350896E-2,-2.1154948E-2,-5.208482E-3,2.1046018E-2,-4.8351474E-2,2.7843171E-3,-8.066631E-3,-3.583944E-2,1.0074771E-2,-1.9642232E-2,-2.5206916E-3,-3.0050227E-2,2.2786407E-2,5.2515883E-3,2.3627957E-2,5.396135E-3,-4.9799834E-3,9.538064E-3,3.0238032E-3,-4.8357897E-2,2.0395515E-2,2.5615138E-3,-4.678885E-2,-1.6902864E-2,2.5183303E-2,-3.503045E-2,-2.7478863E-3],"categories":[],"categories_nodes":[],"categories_segments":[],"categories_sizes":[],"default_left":[0,0,0,0,0,0,0,0,0,0,0,0,0,0,0,0,0,0,0,0,0,0,0,0,0,0,0,0,0,0,0,0,0,0,0,0,0,0,0,0,0,0,0,0,0,0,0,0,0,0,0,0,0,0,0,0,0,0,0,0,0,0,0,0,0,0,0,0,0,0,0,0,0,0,0,0,0,0,0,0,0,0,0,0,0,0,0,0,0,0,0,0,0,0,0,0,0,0,0,0,0,0,0,0,0,0,0,0,0,0,0,0,0,0,0],"id":12,"left_children":[1,3,5,7,9,11,13,15,17,19,21,23,25,27,29,-1,31,33,35,37,39,41,43,45,47,49,51,53,55,57,59,61,-1,-1,-1,63,65,67,69,71,73,75,77,79,81,83,85,87,89,91,93,95,97,99,101,103,105,107,109,111,113,-1,-1,-1,-1,-1,-1,-1,-1,-1,-1,-1,-1,-1,-1,-1,-1,-1,-1,-1,-1,-1,-1,-1,-1,-1,-1,-1,-1,-1,-1,-1,-1,-1,-1,-1,-1,-1,-1,-1,-1,-1,-1,-1,-1,-1,-1,-1,-1,-1,-1,-1,-1,-1,-1],"loss_changes":[5.7627124E2,3.368587E2,2.2439973E2,1.5761346E2,1.8418521E2,1.3807271E2,7.296591E1,2.4640295E1,3.3173096E1,1.22082344E2,1.0476996E2,6.458177E1,1.4281519E2,4.6905426E1,5.1816364E1,0E0,1.4463976E1,1.1976196E1,2.8923126E1,8.7860504E1,1.4236583E2,1.13162964E2,1.8226149E2,4.5011993E1,8.315578E1,6.433467E1,5.6004044E1,3.0329567E1,4.3641693E1,3.749228E1,2.323835E1,4.162628E0,0E0,0E0,0E0,2.6538425E1,2.5826355E1,8.641635E1,8.190645E1,3.584474E1,5.9322075E1,1.1239834E2,4.7704895E1,5.2697544E1,1.0783139E2,1.7535416E1,6.289188E1,8.705754E1,8.653613E1,4.2307343E1,5.5388653E1,1.031756E2,4.969574E1,1.1860542E1,2.8828556E1,4.436177E1,3.908206E1,1.6776997E1,3.6720856E1,3.1324669E1,1.3571785E1,0E0,0E0,0E0,0E0,0E0,0E0,0E0,0E0,0E0,0E0,0E0,0E0,0E0,0E0,0E0,0E0,0E0,0E0,0E0,0E0,0E0,0E0,0E0,0E0,0E0,0E0,0E0,0E0,0E0,0E0,0E0,0E0,0E0,0E0,0E0,0E0,0E0,0E0,0E0,0E0,0E0,0E0,0E0,0E0,0E0,0E0,0E0,0E0,0E0,0E0,0E0,0E0,0E0,0E0],"parents":[2147483647,0,0,1,1,2,2,3,3,4,4,5,5,6,6,7,7,8,8,9,9,10,10,11,11,12,12,13,13,14,14,16,16,17,17,18,18,19,19,20,20,21,21,22,22,23,23,24,24,25,25,26,26,27,27,28,28,29,29,30,30,31,31,35,35,36,36,37,37,38,38,39,39,40,40,41,41,42,42,43,43,44,44,45,45,46,46,47,47,48,48,49,49,50,50,51,51,52,52,53,53,54,54,55,55,56,56,57,57,58,58,59,59,60,60],"right_children":[2,4,6,8,10,12,14,16,18,20,22,24,26,28,30,-1,32,34,36,38,40,42,44,46,48,50,52,54,56,58,60,62,-1,-1,-1,64,66,68,70,72,74,76,78,80,82,84,86,88,90,92,94,96,98,100,102,104,106,108,110,112,114,-1,-1,-1,-1,-1,-1,-1,-1,-1,-1,-1,-1,-1,-1,-1,-1,-1,-1,-1,-1,-1,-1,-1,-1,-1,-1,-1,-1,-1,-1,-1,-1,-1,-1,-1,-1,-1,-1,-1,-1,-1,-1,-1,-1,-1,-1,-1,-1,-1,-1,-1,-1,-1,-1],"split_conditions":[1.7356848E-3,4.8961583E-1,2.9074254E-3,-1.178865E-1,4.8989773E-1,1E0,5.862794E-1,9.912461E-4,1.230329E-3,4.46948E-1,5.564585E-1,-1.12704076E-1,5.405924E-1,-1.4087272E-1,3.7915339E-3,-3.605168E-2,2.5151712E-3,2.3612586E-1,-7.1349317E-1,1.2921059E-1,1.1971157E1,1.4962993E1,1.1058018E-3,4.895849E-1,1.1700226E-1,4.7543555E-1,5.564585E-1,1.7906446E1,3.3682305E-1,8.2012355E-1,8.6422275E-5,4.5666888E-1,-3.0271329E-2,1.3254792E-3,-4.67428E-2,1.642326E-3,1.328342E-3,2.4400112E1,1.4482312E-1,3.8751364E-1,6.3503464E-4,1E0,1.1379505E-3,1.4638269E1,5.6923074E-1,2.6392306E-3,-1.3356116E-1,4.4653904E1,1.3838309E-1,-4.0483954E-3,5.390345E-3,3.0196608E1,-8.6379744E-4,-9.333373E-3,1.6328622E0,2.525427E-2,1.2302215E1,3.7547452E-3,2.5952406E0,6.710894E-1,9.624954E-1,3.2053128E-2,1.0758786E-2,-2.3071183E-2,2.3068113E-2,-1.4033459E-2,-4.334522E-2,2.3470921E-3,-1.2881489E-2,-3.029129E-2,-8.617514E-3,1.6264873E-2,-4.189393E-2,2.9470043E-2,5.148752E-3,-4.7200352E-2,6.703089E-3,-4.9468458E-2,-2.625984E-2,-3.246212E-2,1.8051589E-2,1.5461001E-2,-2.8640244E-2,-3.4796912E-2,-1.2387907E-2,8.957617E-3,-4.922776E-2,1.9205925E-3,-3.1350896E-2,-2.1154948E-2,-5.208482E-3,2.1046018E-2,-4.8351474E-2,2.7843171E-3,-8.066631E-3,-3.583944E-2,1.0074771E-2,-1.9642232E-2,-2.5206916E-3,-3.0050227E-2,2.2786407E-2,5.2515883E-3,2.3627957E-2,5.396135E-3,-4.9799834E-3,9.538064E-3,3.0238032E-3,-4.8357897E-2,2.0395515E-2,2.5615138E-3,-4.678885E-2,-1.6902864E-2,2.5183303E-2,-3.503045E-2,-2.7478863E-3],"split_indices":[0,2,0,10,10,7,10,0,0,10,10,10,10,10,0,0,9,19,15,10,21,21,0,15,10,2,10,21,19,2,13,2,0,0,0,0,0,21,10,19,0,7,0,21,10,0,10,21,10,10,9,21,9,13,2,10,21,0,19,15,15,0,0,0,0,0,0,0,0,0,0,0,0,0,0,0,0,0,0,0,0,0,0,0,0,0,0,0,0,0,0,0,0,0,0,0,0,0,0,0,0,0,0,0,0,0,0,0,0,0,0,0,0,0,0],"split_type":[0,0,0,0,0,0,0,0,0,0,0,0,0,0,0,0,0,0,0,0,0,0,0,0,0,0,0,0,0,0,0,0,0,0,0,0,0,0,0,0,0,0,0,0,0,0,0,0,0,0,0,0,0,0,0,0,0,0,0,0,0,0,0,0,0,0,0,0,0,0,0,0,0,0,0,0,0,0,0,0,0,0,0,0,0,0,0,0,0,0,0,0,0,0,0,0,0,0,0,0,0,0,0,0,0,0,0,0,0,0,0,0,0,0,0],"sum_hessian":[2.7221707E4,3.561455E3,2.3660252E4,2.4635469E2,3.3151006E3,8.885854E3,1.4774398E4,2.8531342E1,2.1782335E2,2.6406108E3,6.744896E2,3.583069E3,5.302784E3,1.4449907E4,3.2449173E2,2.9638762E0,2.5567465E1,1.24051216E2,9.377214E1,2.0002721E3,6.403388E2,3.840466E2,2.9044305E2,1.3528435E2,3.4477847E3,4.699677E3,6.03107E2,4.8534006E2,1.3964567E4,2.2043071E2,1.0406102E2,2.410536E1,1.4621053E0,2.388239E0,1.2166298E2,2.3295877E1,7.0476265E1,9.3091406E2,1.069358E3,3.998131E1,6.003575E2,1.06226456E2,2.7782013E2,1.2013788E2,1.7030518E2,8.462396E1,5.066038E1,1.1043693E3,2.3434155E3,2.211693E1,4.67756E3,1.0970509E2,4.9340192E2,8.115761E1,4.0418243E2,8.7931824E2,1.3085249E4,1.0745381E1,2.0968533E2,5.571849E1,4.8342525E1,1.6699368E1,7.4059916E0,1.5341365E1,7.9545126E0,2.09377E1,4.953856E1,7.039566E2,2.269575E2,8.7068115E1,9.8228986E2,5.132138E0,3.4849174E1,4.9715126E1,5.5064233E2,2.1613882E1,8.461257E1,5.155797E1,2.2626216E2,9.528274E0,1.10609604E2,3.0665936E1,1.3963924E2,6.0682186E1,2.3941778E1,4.085245E1,9.807931E0,1.0677357E3,3.6633564E1,1.687512E2,2.1746643E3,4.5760646E0,1.7540865E1,4.4498916E3,2.2766861E2,7.862045E1,3.1084635E1,9.6782E1,3.966199E2,1.1873872E0,7.997022E1,3.6069006E2,4.3492386E1,2.7749814E2,6.0182007E2,4.3981558E2,1.2645434E4,9.372869E0,1.3725128E0,2.0346942E2,6.215914E0,4.677801E1,8.940481E0,4.1109962E1,7.2325644E0],"tree_param":{"num_deleted":"0","num_feature":"22","num_nodes":"115","size_leaf_vector":"1"}},{"base_weights":[1.1243912E-3,-1.2165222E0,1.6798617E-2,-2.039806E0,-6.948911E-1,-1.2096038E-1,1.1699513E-1,1.3055629E-3,-4.4692308E-2,-1.6244042E0,-3.822825E-1,-3.3482987E-1,1.6139923E-2,-4.095232E-2,1.4023127E-1,-1.8916916E0,2.7633458E-2,-5.2243453E-1,6.895892E-1,-5.0838417E-1,-1.1391262E-1,3.3900753E-2,-4.229122E-1,-5.4687554E-1,5.017063E-2,1.0697553E-1,2.1849553E-1,-4.7771472E-2,-1.3757874E0,3.520903E-1,-6.868656E-1,-6.730906E-1,1.0468506E0,-3.2987458E-1,-6.2427324E-1,-1.4264356E0,-8.945651E-2,-1.23016454E-1,9.175255E-2,-8.418892E-1,1.6897003E-1,-2.957223E-1,-1.266871E0,1.594038E-1,-1.5735853E-1,-2.9361887E-2,1.334325E-1,2.970414E-1,6.348743E-2,1.443967E-2,-3.387634E-2,1.5188374E-2,-3.669224E-2,-2.1523409E-2,3.3135181E-3,-3.4990333E-2,1.9625217E-2,2.8824704E-2,4.7468645E-3,-2.4937245E-3,-9.676069E-3,-1.29789645E-2,-4.837817E-2,-1.0023713E-2,-4.024026E-2,-4.067538E-2,-1.6094265E-3,1.4748138E-3,-7.859619E-3,-9.010634E-3,2.4222857E-3,-2.3151556E-2,-1.2307479E-3,-3.7938366E-3,1.1931828E-2,6.7833955E-3,-9.644472E-3,-4.5177296E-2,-2.011662E-2,3.798931E-3,-1.3122528E-2,-2.11236E-2,-1.5374505E-3,-1.8603803E-3,1.4659308E-2,3.0887686E-3,-1.0308973E-2,8.225818E-3,2.5100587E-3,8.334806E-3,-1.6424624E-4],"categories":[],"categories_nodes":[],"categories_segments":[],"categories_sizes":[],"default_left":[0,0,0,0,0,0,0,0,0,0,0,0,0,0,0,0,0,0,0,0,0,0,0,0,0,0,0,0,0,0,0,0,0,0,0,0,0,0,0,0,0,0,0,0,0,0,0,0,0,0,0,0,0,0,0,0,0,0,0,0,0,0,0,0,0,0,0,0,0,0,0,0,0,0,0,0,0,0,0,0,0,0,0,0,0,0,0,0,0,0,0],"id":13,"left_children":[1,3,5,7,9,11,13,-1,-1,15,17,19,21,23,25,27,-1,29,31,33,35,37,39,41,43,45,47,-1,49,51,53,55,57,59,61,63,65,67,69,71,73,75,77,79,81,83,85,87,89,-1,-1,-1,-1,-1,-1,-1,-1,-1,-1,-1,-1,-1,-1,-1,-1,-1,-1,-1,-1,-1,-1,-1,-1,-1,-1,-1,-1,-1,-1,-1,-1,-1,-1,-1,-1,-1,-1,-1,-1,-1,-1],"loss_changes":[5.164456E2,1.4626889E2,3.687657E2,1.0984497E1,6.0989723E1,3.2986133E2,5.6770187E1,0E0,0E0,4.369316E1,2.4392715E1,1.684325E2,5.3477665E1,9.150749E1,3.5070435E1,5.2905426E0,0E0,2.0668E1,9.920308E0,5.070111E1,6.1975548E1,5.9839043E1,6.626456E1,5.440547E1,3.8163345E1,3.4143356E1,4.8923904E1,0E0,9.95731E0,1.8087704E1,3.183974E1,8.358014E0,3.4393425E0,2.4901176E1,4.8580322E1,1.4227814E1,4.986634E1,8.254999E1,5.1493553E1,2.8748055E1,1.4944469E1,2.1247498E1,1.9601372E1,1.4784664E1,4.1062305E1,6.2629227E1,4.9775604E1,4.110443E1,3.1204208E1,0E0,0E0,0E0,0E0,0E0,0E0,0E0,0E0,0E0,0E0,0E0,0E0,0E0,0E0,0E0,0E0,0E0,0E0,0E0,0E0,0E0,0E0,0E0,0E0,0E0,0E0,0E0,0E0,0E0,0E0,0E0,0E0,0E0,0E0,0E0,0E0,0E0,0E0,0E0,0E0,0E0,0E0],"parents":[2147483647,0,0,1,1,2,2,3,3,4,4,5,5,6,6,9,9,10,10,11,11,12,12,13,13,14,14,15,15,17,17,18,18,19,19,20,20,21,21,22,22,23,23,24,24,25,25,26,26,28,28,29,29,30,30,31,31,32,32,33,33,34,34,35,35,36,36,37,37,38,38,39,39,40,40,41,41,42,42,43,43,44,44,45,45,46,46,47,47,48,48],"right_children":[2,4,6,8,10,12,14,-1,-1,16,18,20,22,24,26,28,-1,30,32,34,36,38,40,42,44,46,48,-1,50,52,54,56,58,60,62,64,66,68,70,72,74,76,78,80,82,84,86,88,90,-1,-1,-1,-1,-1,-1,-1,-1,-1,-1,-1,-1,-1,-1,-1,-1,-1,-1,-1,-1,-1,-1,-1,-1,-1,-1,-1,-1,-1,-1,-1,-1,-1,-1,-1,-1,-1,-1,-1,-1,-1,-1],"split_conditions":[4.8961583E-1,1.230329E-3,2.7943251E-3,2.3612586E-1,-8.51122E0,1E0,-2.7143997E2,1.3055629E-3,-4.4692308E-2,3.573144E-3,1.4664248E-3,7.895754E-1,2.5436316E2,3.7710834E-3,4.532331E-3,-2.5666817E1,2.7633458E-2,9.03861E-1,8.232657E-1,-8.011562E-4,-4.9546742E-1,1.642326E-3,2.5898288E-3,6.907976E-1,6.474941E-1,4.712584E-1,